{"learner":{"attributes":{"scikit_learn":"{\"_estimator_type\": \"classifier\"}"},"feature_names":["Pregnancies","Glucose","BloodPressure","SkinThickness","Insulin","BMI","DiabetesPedigreeFunction","Age"],"feature_types":["int","int","int","int","int","float","float","int"],"gradient_booster":{"model":{"cats":{"enc":[],"feature_segments":[],"sorted_idx":[]},"gbtree_model_param":{"num_parallel_tree":"1","num_trees":"200"},"iteration_indptr":[0,1,2,3,4,5,6,7,8,9,10,11,12,13,14,15,16,17,18,19,20,21,22,23,24,25,26,27,28,29,30,31,32,33,34,35,36,37,38,39,40,41,42,43,44,45,46,47,48,49,50,51,52,53,54,55,56,57,58,59,60,61,62,63,64,65,66,67,68,69,70,71,72,73,74,75,76,77,78,79,80,81,82,83,84,85,86,87,88,89,90,91,92,93,94,95,96,97,98,99,100,101,102,103,104,105,106,107,108,109,110,111,112,113,114,115,116,117,118,119,120,121,122,123,124,125,126,127,128,129,130,131,132,133,134,135,136,137,138,139,140,141,142,143,144,145,146,147,148,149,150,151,152,153,154,155,156,157,158,159,160,161,162,163,164,165,166,167,168,169,170,171,172,173,174,175,176,177,178,179,180,181,182,183,184,185,186,187,188,189,190,191,192,193,194,195,196,197,198,199,200],"tree_info":[0,0,0,0,0,0,0,0,0,0,0,0,0,0,0,0,0,0,0,0,0,0,0,0,0,0,0,0,0,0,0,0,0,0,0,0,0,0,0,0,0,0,0,0,0,0,0,0,0,0,0,0,0,0,0,0,0,0,0,0,0,0,0,0,0,0,0,0,0,0,0,0,0,0,0,0,0,0,0,0,0,0,0,0,0,0,0,0,0,0,0,0,0,0,0,0,0,0,0,0,0,0,0,0,0,0,0,0,0,0,0,0,0,0,0,0,0,0,0,0,0,0,0,0,0,0,0,0,0,0,0,0,0,0,0,0,0,0,0,0,0,0,0,0,0,0,0,0,0,0,0,0,0,0,0,0,0,0,0,0,0,0,0,0,0,0,0,0,0,0,0,0,0,0,0,0,0,0,0,0,0,0,0,0,0,0,0,0,0,0,0,0,0,0,0,0,0,0,0,0],"trees":[{"base_weights":[-2.2073644E-8,-6.128754E-1,1.3918282E0,-1.0244501E0,2.7880123E-2,5.626623E-1,2.0654893E0,-1.0980988E0,6.156574E-2,-1.2283169E0,3.5041666E-1,-3.8145998E-1,1.0995258E0,2.1589217E0,6.0256193E-3,-6.504636E-2,-2.989137E-2,-6.5986484E-2,-1.7390398E-2,-1.2521266E-2,4.4547513E-2,-3.227314E-2,1.4180805E-2,6.969485E-2,1.6968437E-2,1.1076027E-1,2.9441638E-2],"categories":[],"categories_nodes":[],"categories_segments":[],"categories_sizes":[],"default_left":[0,0,0,0,0,0,0,0,0,0,0,0,0,0,0,0,0,0,0,0,0,0,0,0,0,0,0],"id":0,"left_children":[1,3,5,7,9,11,13,15,-1,17,19,21,23,25,-1,-1,-1,-1,-1,-1,-1,-1,-1,-1,-1,-1,-1],"loss_changes":[1.20628296E2,2.5920689E1,2.298668E1,1.1288277E1,1.6383083E1,1.0938924E1,4.0064697E0,5.1527023E0,0E0,2.063055E-1,1.0650663E1,1.6343994E0,2.545185E0,6.7012024E-1,0E0,0E0,0E0,0E0,0E0,0E0,0E0,0E0,0E0,0E0,0E0,0E0,0E0],"parents":[2147483647,0,0,1,1,2,2,3,3,4,4,5,5,6,6,7,7,9,9,10,10,11,11,12,12,13,13],"right_children":[2,4,6,8,10,12,14,16,-1,18,20,22,24,26,-1,-1,-1,-1,-1,-1,-1,-1,-1,-1,-1,-1,-1],"split_conditions":[1.34E2,3.1E1,1.55E2,4.54E1,2.7E1,3E1,6.3E1,5.09E-1,6.156574E-2,1.23E2,1.08E2,1.46E2,1.47E2,5.4E2,6.0256193E-3,-6.504636E-2,-2.989137E-2,-6.5986484E-2,-1.7390398E-2,-1.2521266E-2,4.4547513E-2,-3.227314E-2,1.4180805E-2,6.969485E-2,1.6968437E-2,1.1076027E-1,2.9441638E-2],"split_indices":[1,7,1,5,5,5,7,6,0,1,1,1,1,4,0,0,0,0,0,0,0,0,0,0,0,0,0],"split_type":[0,0,0,0,0,0,0,0,0,0,0,0,0,0,0,0,0,0,0,0,0,0,0,0,0,0,0],"sum_hessian":[1.3941367E2,9.718086E1,4.2232807E1,5.880805E1,3.8372818E1,1.9754055E1,2.2478752E1,5.7445698E1,1.3623486E0,7.265859E0,3.110696E1,7.265859E0,1.2488195E1,2.1343462E1,1.1352905E0,3.973517E1,1.7710531E1,6.1305685E0,1.1352905E0,1.4985834E1,1.6121124E1,5.2223363E0,2.0435228E0,8.40115E0,4.0870457E0,2.020817E1,1.1352905E0],"tree_param":{"num_deleted":"0","num_feature":"8","num_nodes":"27","size_leaf_vector":"1"}},{"base_weights":[3.4513618E-4,-5.8906823E-1,1.30241E0,-1.044687E0,-4.609826E-2,5.3370667E-1,1.9144958E0,-1.1103661E0,5.072222E-2,-1.1340876E0,2.3389933E-1,-3.666056E-1,1.0358839E0,1.9983352E0,5.859624E-3,-6.578564E-2,-3.1992074E-2,7.2980854E-3,-6.615658E-2,-8.550128E-3,5.4761775E-2,-4.904006E-2,-2.0525279E-3,6.5368645E-2,1.6218763E-2,2.6018256E-2,1.0269012E-1],"categories":[],"categories_nodes":[],"categories_segments":[],"categories_sizes":[],"default_left":[0,0,0,0,0,0,0,0,0,0,0,0,0,0,0,0,0,0,0,0,0,0,0,0,0,0,0],"id":1,"left_children":[1,3,5,7,9,11,13,15,-1,17,19,21,23,25,-1,-1,-1,-1,-1,-1,-1,-1,-1,-1,-1,-1,-1],"loss_changes":[1.0842078E2,2.4010445E1,1.9691498E1,8.271599E0,1.4101164E1,9.829563E0,3.4005737E0,4.15123E0,0E0,2.484024E0,1.3074184E1,1.6038707E0,2.218195E0,8.1549835E-1,0E0,0E0,0E0,0E0,0E0,0E0,0E0,0E0,0E0,0E0,0E0,0E0,0E0],"parents":[2147483647,0,0,1,1,2,2,3,3,4,4,5,5,6,6,7,7,9,9,10,10,11,11,12,12,13,13],"right_children":[2,4,6,8,10,12,14,16,-1,18,20,22,24,26,-1,-1,-1,-1,-1,-1,-1,-1,-1,-1,-1,-1,-1],"split_conditions":[1.34E2,2.9E1,1.55E2,4.54E1,2.7E1,3E1,6.3E1,5.09E-1,5.072222E-2,1.99E1,5.59E-1,2E0,1.47E2,1.37E-1,5.859624E-3,-6.578564E-2,-3.1992074E-2,7.2980854E-3,-6.615658E-2,-8.550128E-3,5.4761775E-2,-4.904006E-2,-2.0525279E-3,6.5368645E-2,1.6218763E-2,2.6018256E-2,1.0269012E-1],"split_indices":[1,7,1,5,5,5,7,6,0,5,6,0,1,6,0,0,0,0,0,0,0,0,0,0,0,0,0],"split_type":[0,0,0,0,0,0,0,0,0,0,0,0,0,0,0,0,0,0,0,0,0,0,0,0,0,0,0],"sum_hessian":[1.3927356E2,9.6250755E1,4.3022808E1,5.1832703E1,4.4418053E1,1.990126E1,2.312155E1,5.0677044E1,1.1556616E0,8.467082E0,3.595097E1,7.2225366E0,1.2678723E1,2.1984194E1,1.1373554E0,3.4029568E1,1.6647474E1,1.1188762E0,7.348206E0,2.50002E1,1.0950771E1,1.8048269E0,5.41771E0,8.570884E0,4.1078396E0,1.170728E0,2.0813465E1],"tree_param":{"num_deleted":"0","num_feature":"8","num_nodes":"27","size_leaf_vector":"1"}},{"base_weights":[5.7687337E-4,-6.5209335E-1,1.0681653E0,-1.0782149E0,-1.2658466E-1,-6.236723E-2,1.4760684E0,-1.1298499E0,2.7451072E-2,-1.0825938E0,1.3831349E-1,-7.720046E-1,8.0189365E-1,9.866762E-1,1.9637091E0,-6.758743E-2,-3.91789E-2,7.7678873E-3,-6.4024545E-2,-1.0679922E-2,4.600301E-2,-4.9585782E-2,-1.0982847E-3,-2.0046031E-2,5.4776765E-2,1.2370776E-2,6.424492E-2,1.0195076E-1,2.3408158E-2],"categories":[],"categories_nodes":[],"categories_segments":[],"categories_sizes":[],"default_left":[0,0,0,0,0,0,0,0,0,0,0,0,0,0,0,0,0,0,0,0,0,0,0,0,0,0,0,0,0],"id":2,"left_children":[1,3,5,7,9,11,13,15,-1,17,19,21,23,25,27,-1,-1,-1,-1,-1,-1,-1,-1,-1,-1,-1,-1,-1,-1],"loss_changes":[9.819853E1,1.9448963E1,2.474937E1,4.667267E0,1.035472E1,9.902415E0,7.4491806E0,2.5529938E0,0E0,2.3686447E0,9.121084E0,1.4318819E0,3.022924E0,4.453184E0,1.1505508E0,0E0,0E0,0E0,0E0,0E0,0E0,0E0,0E0,0E0,0E0,0E0,0E0,0E0,0E0],"parents":[2147483647,0,0,1,1,2,2,3,3,4,4,5,5,6,6,7,7,9,9,10,10,11,11,12,12,13,13,14,14],"right_children":[2,4,6,8,10,12,14,16,-1,18,20,22,24,26,28,-1,-1,-1,-1,-1,-1,-1,-1,-1,-1,-1,-1,-1,-1],"split_conditions":[1.28E2,2.9E1,3E1,4.53E1,2.67E1,1.46E2,1.58E2,3.11E1,2.7451072E-2,2.1E1,5.59E-1,2.82E1,2.8E1,3.05E-1,1.292E0,-6.758743E-2,-3.91789E-2,7.7678873E-3,-6.4024545E-2,-1.0679922E-2,4.600301E-2,-4.9585782E-2,-1.0982847E-3,-2.0046031E-2,5.4776765E-2,1.2370776E-2,6.424492E-2,1.0195076E-1,2.3408158E-2],"split_indices":[1,7,5,5,5,1,1,5,0,5,6,5,7,6,6,0,0,0,0,0,0,0,0,0,0,0,0,0,0],"split_type":[0,0,0,0,0,0,0,0,0,0,0,0,0,0,0,0,0,0,0,0,0,0,0,0,0,0,0,0,0],"sum_hessian":[1.389316E2,8.646215E1,5.2469448E1,4.716528E1,3.929687E1,1.4136427E1,3.833302E1,4.6010937E1,1.1543424E0,7.856431E0,3.1440441E1,7.8212285E0,6.315199E0,2.0641127E1,1.7691895E1,2.6271719E1,1.9739218E1,1.112446E0,6.7439847E0,2.2181818E1,9.258623E0,5.799999E0,2.021229E0,1.1675093E0,5.14769E0,6.4591713E0,1.4181955E1,1.6497782E1,1.1941128E0],"tree_param":{"num_deleted":"0","num_feature":"8","num_nodes":"29","size_leaf_vector":"1"}},{"base_weights":[7.096149E-4,-6.284226E-1,1.0077348E0,-1.0814414E0,-1.5945168E-1,-6.0732324E-2,1.3868476E0,-1.3119094E0,-7.254438E-1,-1.0975981E0,1.0797604E-1,-7.4765015E-1,7.599885E-1,9.2986083E-1,1.8401269E0,-6.737762E-2,-1.2736358E-2,-4.3537464E-2,-2.600718E-3,7.951511E-3,-6.384549E-2,-1.2613393E-2,4.5478232E-2,-4.8171498E-2,-1.0618035E-3,-1.9561408E-2,5.1906206E-2,1.17999865E-2,6.0319014E-2,9.539987E-2,2.2710137E-2],"categories":[],"categories_nodes":[],"categories_segments":[],"categories_sizes":[],"default_left":[0,0,0,0,0,0,0,0,0,0,0,0,0,0,0,0,0,0,0,0,0,0,0,0,0,0,0,0,0,0,0],"id":3,"left_children":[1,3,5,7,9,11,13,15,17,19,21,23,25,27,29,-1,-1,-1,-1,-1,-1,-1,-1,-1,-1,-1,-1,-1,-1,-1,-1],"loss_changes":[8.897105E1,1.8190716E1,2.1957352E1,2.6412392E0,1.1067763E1,9.081055E0,6.5536194E0,6.117897E-1,1.8575773E0,2.4046488E0,1.0299268E1,1.3470063E0,2.7678356E0,3.9151516E0,9.214401E-1,0E0,0E0,0E0,0E0,0E0,0E0,0E0,0E0,0E0,0E0,0E0,0E0,0E0,0E0,0E0,0E0],"parents":[2147483647,0,0,1,1,2,2,3,3,4,4,5,5,6,6,7,7,8,8,9,9,10,10,11,11,12,12,13,13,14,14],"right_children":[2,4,6,8,10,12,14,16,18,20,22,24,26,28,30,-1,-1,-1,-1,-1,-1,-1,-1,-1,-1,-1,-1,-1,-1,-1,-1],"split_conditions":[1.28E2,2.8E1,3E1,3.11E1,2.67E1,1.46E2,1.58E2,6E0,8E1,1.99E1,5.59E-1,2.82E1,2.8E1,3.05E-1,1.292E0,-6.737762E-2,-1.2736358E-2,-4.3537464E-2,-2.600718E-3,7.951511E-3,-6.384549E-2,-1.2613393E-2,4.5478232E-2,-4.8171498E-2,-1.0618035E-3,-1.9561408E-2,5.1906206E-2,1.17999865E-2,6.0319014E-2,9.539987E-2,2.2710137E-2],"split_indices":[1,7,5,5,5,1,1,0,2,5,6,5,7,6,6,0,0,0,0,0,0,0,0,0,0,0,0,0,0,0,0],"split_type":[0,0,0,0,0,0,0,0,0,0,0,0,0,0,0,0,0,0,0,0,0,0,0,0,0,0,0,0,0,0,0],"sum_hessian":[1.3843254E2,8.543412E1,5.299843E1,4.279185E1,4.2642265E1,1.4099921E1,3.8898506E1,2.434564E1,1.8446209E1,8.770555E0,3.387171E1,7.7241116E0,6.375809E0,2.0889526E1,1.800898E1,2.3285892E1,1.0597477E0,1.4931451E1,3.5147583E0,1.1093392E0,7.661215E0,2.3842075E1,1.0029636E1,5.70359E0,2.0205216E0,1.1615381E0,5.214271E0,6.4808364E0,1.44086895E1,1.6809118E1,1.1998615E0],"tree_param":{"num_deleted":"0","num_feature":"8","num_nodes":"31","size_leaf_vector":"1"}},{"base_weights":[4.47179E-4,-6.0639215E-1,9.5334166E-1,-1.0174084E0,-1.15014546E-1,-5.9259657E-2,1.3076096E0,-1.0692745E0,2.7001683E-2,-1.0255338E0,1.2755218E-1,-7.243662E-1,7.211766E-1,8.779423E-1,1.7333465E0,-5.8943074E-2,-2.2077566E-2,7.7194157E-3,-6.1164953E-2,-9.636325E-3,4.096877E-2,-4.6823602E-2,-1.0265283E-3,-2.0037686E-2,4.970325E-2,1.9228388E-2,6.2129557E-2,8.97656E-2,2.2036318E-2],"categories":[],"categories_nodes":[],"categories_segments":[],"categories_sizes":[],"default_left":[0,0,0,0,0,0,0,0,0,0,0,0,0,0,0,0,0,0,0,0,0,0,0,0,0,0,0,0,0],"id":4,"left_children":[1,3,5,7,9,11,13,15,-1,17,19,21,23,25,27,-1,-1,-1,-1,-1,-1,-1,-1,-1,-1,-1,-1,-1,-1],"loss_changes":[8.083093E1,1.7130634E1,1.9587208E1,4.3235397E0,8.970725E0,8.3356495E0,5.8561325E0,2.5898895E0,0E0,2.1793957E0,7.3578877E0,1.2684569E0,2.672178E0,3.4981422E0,7.4925995E-1,0E0,0E0,0E0,0E0,0E0,0E0,0E0,0E0,0E0,0E0,0E0,0E0,0E0,0E0],"parents":[2147483647,0,0,1,1,2,2,3,3,4,4,5,5,6,6,7,7,9,9,10,10,11,11,12,12,13,13,14,14],"right_children":[2,4,6,8,10,12,14,16,-1,18,20,22,24,26,28,-1,-1,-1,-1,-1,-1,-1,-1,-1,-1,-1,-1,-1,-1],"split_conditions":[1.28E2,2.9E1,3E1,4.53E1,2.67E1,1.46E2,1.58E2,6.72E-1,2.7001683E-2,2.1E1,5.59E-1,2.82E1,2E0,4.21E-1,1.292E0,-5.8943074E-2,-2.2077566E-2,7.7194157E-3,-6.1164953E-2,-9.636325E-3,4.096877E-2,-4.6823602E-2,-1.0265283E-3,-2.0037686E-2,4.970325E-2,1.9228388E-2,6.2129557E-2,8.97656E-2,2.2036318E-2],"split_indices":[1,7,5,5,5,1,1,6,0,5,6,5,0,6,6,0,0,0,0,0,0,0,0,0,0,0,0,0,0],"split_type":[0,0,0,0,0,0,0,0,0,0,0,0,0,0,0,0,0,0,0,0,0,0,0,0,0,0,0,0,0],"sum_hessian":[1.3778479E2,8.439957E1,5.3385216E1,4.5374897E1,3.902467E1,1.4052314E1,3.93329E1,4.4215855E1,1.1590406E0,7.5303316E0,3.149434E1,7.625513E0,6.4268007E0,2.1100142E1,1.823276E1,3.6896523E1,7.319332E0,1.112454E0,6.417877E0,2.2021114E1,9.473226E0,5.6056757E0,2.019837E0,1.1656955E0,5.261105E0,9.840476E0,1.12596655E1,1.7027597E1,1.2051626E0],"tree_param":{"num_deleted":"0","num_feature":"8","num_nodes":"29","size_leaf_vector":"1"}},{"base_weights":[7.8929856E-4,-5.84795E-1,9.042391E-1,-1.022922E0,-1.4546722E-1,-5.7959978E-2,1.2369521E0,-1.2576299E0,-6.6740966E-1,-1.0448556E0,1.01061046E-1,-7.0206136E-1,6.8490016E-1,8.308833E-1,1.6399843E0,-6.47048E-2,-1.1081793E-2,-4.6412505E-2,-1.289953E-2,7.870286E-3,-6.1241265E-2,-1.1511817E-2,4.0979106E-2,-4.5535628E-2,-9.924222E-4,5.3442534E-2,-9.121837E-3,1.0377445E-2,5.38193E-2,8.650737E-2,3.2282043E-2],"categories":[],"categories_nodes":[],"categories_segments":[],"categories_sizes":[],"default_left":[0,0,0,0,0,0,0,0,0,0,0,0,0,0,0,0,0,0,0,0,0,0,0,0,0,0,0,0,0,0,0],"id":5,"left_children":[1,3,5,7,9,11,13,15,17,19,21,23,25,27,29,-1,-1,-1,-1,-1,-1,-1,-1,-1,-1,-1,-1,-1,-1,-1,-1],"loss_changes":[7.351732E1,1.608008E1,1.7566658E1,2.6692696E0,9.698535E0,7.656351E0,5.290409E0,6.273079E-1,1.7737856E0,2.225832E0,8.489064E0,1.1955547E0,2.6827977E0,3.1855946E0,6.2000656E-1,0E0,0E0,0E0,0E0,0E0,0E0,0E0,0E0,0E0,0E0,0E0,0E0,0E0,0E0,0E0,0E0],"parents":[2147483647,0,0,1,1,2,2,3,3,4,4,5,5,6,6,7,7,8,8,9,9,10,10,11,11,12,12,13,13,14,14],"right_children":[2,4,6,8,10,12,14,16,18,20,22,24,26,28,30,-1,-1,-1,-1,-1,-1,-1,-1,-1,-1,-1,-1,-1,-1,-1,-1],"split_conditions":[1.28E2,2.8E1,3E1,3.11E1,2.67E1,1.46E2,1.58E2,6E0,4.67E-1,1.99E1,5.59E-1,2.82E1,2.85E1,3.05E-1,1.076E0,-6.47048E-2,-1.1081793E-2,-4.6412505E-2,-1.289953E-2,7.870286E-3,-6.1241265E-2,-1.1511817E-2,4.0979106E-2,-4.5535628E-2,-9.924222E-4,5.3442534E-2,-9.121837E-3,1.0377445E-2,5.38193E-2,8.650737E-2,3.2282043E-2],"split_indices":[1,7,5,5,5,1,1,0,6,5,6,5,5,6,6,0,0,0,0,0,0,0,0,0,0,0,0,0,0,0,0],"split_type":[0,0,0,0,0,0,0,0,0,0,0,0,0,0,0,0,0,0,0,0,0,0,0,0,0,0,0,0,0,0,0],"sum_hessian":[1.3696254E2,8.3314026E1,5.3648506E1,4.104892E1,4.226511E1,1.3996554E1,3.965195E1,2.3196901E1,1.7852016E1,8.396089E0,3.3869022E1,7.5260067E0,6.470548E0,2.1276613E1,1.8375338E1,2.216749E1,1.0294119E0,1.0130591E1,7.7214255E0,1.1095144E0,7.286574E0,2.364589E1,1.0223133E1,5.506832E0,2.0191743E0,4.324052E0,2.1464963E0,6.533464E0,1.4743149E1,1.6169188E1,2.20615E0],"tree_param":{"num_deleted":"0","num_feature":"8","num_nodes":"31","size_leaf_vector":"1"}},{"base_weights":[5.9356994E-4,-5.649669E-1,8.596574E-1,-9.9614245E-1,-1.3957258E-1,-5.567022E-2,1.1730324E0,-1.2309176E0,-6.454796E-1,-1.0200404E0,9.679108E-2,-6.806554E-1,6.5327144E-1,7.554327E-1,1.5264573E0,-6.337112E-2,-1.0827035E-2,-3.9489213E-2,-2.900887E-4,7.652587E-3,-6.001393E-2,-2.8882025E-2,2.1672096E-2,-4.4301912E-2,-9.5944613E-4,-2.0644423E-2,4.5790642E-2,1.8976985E-2,6.377341E-2,7.8929536E-2,1.8618051E-2],"categories":[],"categories_nodes":[],"categories_segments":[],"categories_sizes":[],"default_left":[0,0,0,0,0,0,0,0,0,0,0,0,0,0,0,0,0,0,0,0,0,0,0,0,0,0,0,0,0,0,0],"id":6,"left_children":[1,3,5,7,9,11,13,15,17,19,21,23,25,27,29,-1,-1,-1,-1,-1,-1,-1,-1,-1,-1,-1,-1,-1,-1,-1,-1],"loss_changes":[6.707498E1,1.5130657E1,1.5786068E1,2.5957794E0,9.061825E0,7.0610743E0,4.8794174E0,5.981178E-1,1.7139454E0,2.1292715E0,8.166906E0,1.1277156E0,2.479354E0,3.5653477E0,6.852112E-1,0E0,0E0,0E0,0E0,0E0,0E0,0E0,0E0,0E0,0E0,0E0,0E0,0E0,0E0,0E0,0E0],"parents":[2147483647,0,0,1,1,2,2,3,3,4,4,5,5,6,6,7,7,8,8,9,9,10,10,11,11,12,12,13,13,14,14],"right_children":[2,4,6,8,10,12,14,16,18,20,22,24,26,28,30,-1,-1,-1,-1,-1,-1,-1,-1,-1,-1,-1,-1,-1,-1,-1,-1],"split_conditions":[1.28E2,2.8E1,3E1,3.11E1,2.67E1,1.46E2,1.55E2,6E0,8E1,1.99E1,1E2,2.82E1,2.8E1,3.2E1,5.4E2,-6.337112E-2,-1.0827035E-2,-3.9489213E-2,-2.900887E-4,7.652587E-3,-6.001393E-2,-2.8882025E-2,2.1672096E-2,-4.4301912E-2,-9.5944613E-4,-2.0644423E-2,4.5790642E-2,1.8976985E-2,6.377341E-2,7.8929536E-2,1.8618051E-2],"split_indices":[1,7,5,5,5,1,1,0,2,5,1,5,7,3,4,0,0,0,0,0,0,0,0,0,0,0,0,0,0,0,0],"split_type":[0,0,0,0,0,0,0,0,0,0,0,0,0,0,0,0,0,0,0,0,0,0,0,0,0,0,0,0,0,0,0],"sum_hessian":[1.3605661E2,8.225004E1,5.3806564E1,4.0181137E1,4.20689E1,1.39328575E1,3.9873707E1,2.2563925E1,1.7617214E1,8.20167E0,3.386723E1,7.426096E0,6.506761E0,1.971561E1,2.0158098E1,2.1539318E1,1.0246052E0,1.4183014E1,3.4342003E0,1.1123976E0,7.089272E0,1.1038113E1,2.2829117E1,5.4075627E0,2.018533E0,1.1725339E0,5.3342276E0,1.2447858E1,7.267751E0,1.8934944E1,1.2231543E0],"tree_param":{"num_deleted":"0","num_feature":"8","num_nodes":"31","size_leaf_vector":"1"}},{"base_weights":[1.690542E-4,-5.887841E-1,7.606603E-1,-9.58705E-1,-1.6117638E-1,3.0028293E-1,1.3646287E0,-1.0154555E0,2.6881665E-2,-1.0531895E0,6.667723E-2,-4.0519738E-1,6.617078E-1,1.4377537E0,-2.7547607E-3,-5.6065448E-2,-1.7662747E-2,-1.1266679E-2,-5.738428E-2,-2.5512088E-2,1.9409345E-2,-5.3398587E-2,-3.907106E-3,4.4457134E-2,-1.3020664E-2,1.7776312E-2,7.3977076E-2],"categories":[],"categories_nodes":[],"categories_segments":[],"categories_sizes":[],"default_left":[0,0,0,0,0,0,0,0,0,0,0,0,0,0,0,0,0,0,0,0,0,0,0,0,0,0,0],"id":7,"left_children":[1,3,5,7,9,11,13,15,-1,17,19,21,23,25,-1,-1,-1,-1,-1,-1,-1,-1,-1,-1,-1,-1,-1],"loss_changes":[6.140852E1,1.2067648E1,1.6228443E1,4.046753E0,7.598775E0,9.252949E0,2.7369957E0,2.4123383E0,0E0,3.356247E-1,5.8451643E0,2.638518E0,5.197839E0,5.767021E-1,0E0,0E0,0E0,0E0,0E0,0E0,0E0,0E0,0E0,0E0,0E0,0E0,0E0],"parents":[2147483647,0,0,1,1,2,2,3,3,4,4,5,5,6,6,7,7,9,9,10,10,11,11,12,12,13,13],"right_children":[2,4,6,8,10,12,14,16,-1,18,20,22,24,26,-1,-1,-1,-1,-1,-1,-1,-1,-1,-1,-1,-1,-1],"split_conditions":[1.25E2,2.9E1,1.55E2,4.53E1,2.67E1,3E1,6.3E1,6.72E-1,2.6881665E-2,5.6E1,1E2,2E0,1.96E2,1.37E-1,-2.7547607E-3,-5.6065448E-2,-1.7662747E-2,-1.1266679E-2,-5.738428E-2,-2.5512088E-2,1.9409345E-2,-5.3398587E-2,-3.907106E-3,4.4457134E-2,-1.3020664E-2,1.7776312E-2,7.3977076E-2],"split_indices":[1,7,1,5,5,5,7,6,0,2,1,0,4,6,0,0,0,0,0,0,0,0,0,0,0,0,0],"split_type":[0,0,0,0,0,0,0,0,0,0,0,0,0,0,0,0,0,0,0,0,0,0,0,0,0,0,0],"sum_hessian":[1.3510516E2,7.6266945E1,5.8838223E1,4.0225815E1,3.604113E1,3.4237633E1,2.460059E1,3.906558E1,1.1602386E0,6.596112E0,2.9445019E1,1.1557316E1,2.2680317E1,2.3383492E1,1.2170999E0,3.3083794E1,5.981783E0,1.0225338E0,5.573578E0,1.0327061E1,1.911796E1,3.0701895E0,8.487126E0,1.82218E1,4.4585176E0,1.2228113E0,2.2160679E1],"tree_param":{"num_deleted":"0","num_feature":"8","num_nodes":"27","size_leaf_vector":"1"}},{"base_weights":[-5.424653E-4,-5.6904477E-1,7.230192E-1,-9.32987E-1,-1.5591441E-1,2.8400257E-1,1.2998916E0,-9.896912E-1,2.6060143E-2,-1.0317627E0,6.304435E-2,-3.9216277E-1,6.264145E-1,1.369621E0,-2.6797715E-3,-5.4776605E-2,-1.701613E-2,-1.1008351E-2,-5.6307305E-2,-1.0890505E-2,3.5544254E-2,-5.2296307E-2,-3.7369055E-3,4.2033646E-2,-1.2518083E-2,7.059365E-2,1.596939E-2],"categories":[],"categories_nodes":[],"categories_segments":[],"categories_sizes":[],"default_left":[0,0,0,0,0,0,0,0,0,0,0,0,0,0,0,0,0,0,0,0,0,0,0,0,0,0,0],"id":8,"left_children":[1,3,5,7,9,11,13,15,-1,17,19,21,23,25,-1,-1,-1,-1,-1,-1,-1,-1,-1,-1,-1,-1,-1],"loss_changes":[5.5986004E1,1.1314405E1,1.4797247E1,3.8406334E0,7.1410694E0,8.415222E0,2.489479E0,2.3181152E0,0E0,3.2174444E-1,5.6971073E0,2.5110292E0,4.6831055E0,6.3106537E-1,0E0,0E0,0E0,0E0,0E0,0E0,0E0,0E0,0E0,0E0,0E0,0E0,0E0],"parents":[2147483647,0,0,1,1,2,2,3,3,4,4,5,5,6,6,7,7,9,9,10,10,11,11,12,12,13,13],"right_children":[2,4,6,8,10,12,14,16,-1,18,20,22,24,26,-1,-1,-1,-1,-1,-1,-1,-1,-1,-1,-1,-1,-1],"split_conditions":[1.25E2,2.9E1,1.55E2,4.53E1,2.67E1,3E1,6.3E1,6.72E-1,2.6060143E-2,5.6E1,6.12E-1,2E0,1.96E2,5.4E2,-2.6797715E-3,-5.4776605E-2,-1.701613E-2,-1.1008351E-2,-5.6307305E-2,-1.0890505E-2,3.5544254E-2,-5.2296307E-2,-3.7369055E-3,4.2033646E-2,-1.2518083E-2,7.059365E-2,1.596939E-2],"split_indices":[1,7,1,5,5,5,7,6,0,2,6,0,4,4,0,0,0,0,0,0,0,0,0,0,0,0,0],"split_type":[0,0,0,0,0,0,0,0,0,0,0,0,0,0,0,0,0,0,0,0,0,0,0,0,0,0,0],"sum_hessian":[1.3410405E2,7.521846E1,5.8885586E1,3.9320873E1,3.5897587E1,3.428558E1,2.4600006E1,3.8152584E1,1.1682886E0,6.437013E0,2.9460575E1,1.1476832E1,2.2808748E1,2.3383411E1,1.2165943E0,3.2214806E1,5.937778E0,1.017791E0,5.419222E0,2.1014206E1,8.44637E0,3.0009925E0,8.47584E0,1.8362635E1,4.446114E0,2.2148031E1,1.2353798E0],"tree_param":{"num_deleted":"0","num_feature":"8","num_nodes":"27","size_leaf_vector":"1"}},{"base_weights":[-9.938903E-4,-4.4309092E-1,8.562216E-1,-7.948491E-1,3.7491046E-2,3.5675046E-1,1.2409183E0,-8.686947E-1,5.2029934E-2,-1.0004414E0,2.573013E-1,-2.5332567E-1,6.961086E-1,1.3076963E0,-2.6068273E-3,-5.392995E-2,-1.9591747E-2,-5.493283E-2,-1.0741978E-2,-1.2883692E-2,3.529228E-2,-4.7158614E-2,4.4133826E-3,4.8675727E-2,3.5387517E-3,6.777837E-2,1.7185172E-2],"categories":[],"categories_nodes":[],"categories_segments":[],"categories_sizes":[],"default_left":[0,0,0,0,0,0,0,0,0,0,0,0,0,0,0,0,0,0,0,0,0,0,0,0,0,0,0],"id":9,"left_children":[1,3,5,7,9,11,13,15,-1,17,19,21,23,25,-1,-1,-1,-1,-1,-1,-1,-1,-1,-1,-1,-1,-1],"loss_changes":[5.1160122E1,1.508563E1,8.383236E0,7.8799706E0,9.062527E0,4.604599E0,2.2739067E0,4.584385E0,0E0,3.001709E-1,7.7223744E0,2.0575716E0,2.3615541E0,6.567879E-1,0E0,0E0,0E0,0E0,0E0,0E0,0E0,0E0,0E0,0E0,0E0,0E0,0E0],"parents":[2147483647,0,0,1,1,2,2,3,3,4,4,5,5,6,6,7,7,9,9,10,10,11,11,12,12,13,13],"right_children":[2,4,6,8,10,12,14,16,-1,18,20,22,24,26,-1,-1,-1,-1,-1,-1,-1,-1,-1,-1,-1,-1,-1],"split_conditions":[1.34E2,3.1E1,1.55E2,4.54E1,2.7E1,3.02E1,6.3E1,5.09E-1,5.2029934E-2,1.23E2,1.08E2,2E0,1.47E2,9.2E1,-2.6068273E-3,-5.392995E-2,-1.9591747E-2,-5.493283E-2,-1.0741978E-2,-1.2883692E-2,3.529228E-2,-4.7158614E-2,4.4133826E-3,4.8675727E-2,3.5387517E-3,6.777837E-2,1.7185172E-2],"split_indices":[1,7,1,5,5,5,7,6,0,1,1,0,1,2,0,0,0,0,0,0,0,0,0,0,0,0,0],"split_type":[0,0,0,0,0,0,0,0,0,0,0,0,0,0,0,0,0,0,0,0,0,0,0,0,0,0,0],"sum_hessian":[1.3299588E2,8.806215E1,4.4933727E1,5.0468327E1,3.7593822E1,2.0389004E1,2.4544724E1,4.9022705E1,1.4456202E0,5.9494495E0,3.1644373E1,7.378296E0,1.3010709E1,2.3328625E1,1.2160987E0,3.316309E1,1.5859615E1,4.934103E0,1.0153468E0,1.4929406E1,1.6714968E1,1.8603096E0,5.5179863E0,8.626909E0,4.3838E0,2.183797E1,1.4906542E0],"tree_param":{"num_deleted":"0","num_feature":"8","num_nodes":"27","size_leaf_vector":"1"}},{"base_weights":[-9.776676E-4,-5.3193474E-1,6.5793E-1,-8.8732153E-1,-1.4134927E-1,2.5791827E-1,1.186625E0,-9.4369805E-1,2.4329605E-2,-3.194163E-1,8.08307E-1,-3.73592E-1,5.7255435E-1,1.2507846E0,-2.5358754E-3,-5.2519407E-2,-1.5670767E-2,-2.9443854E-3,-4.947248E-2,-8.106622E-3,5.878484E-2,-5.0368607E-2,-3.7572575E-3,-3.899137E-3,4.2478435E-2,6.465443E-2,1.306131E-2],"categories":[],"categories_nodes":[],"categories_segments":[],"categories_sizes":[],"default_left":[0,0,0,0,0,0,0,0,0,0,0,0,0,0,0,0,0,0,0,0,0,0,0,0,0,0,0],"id":10,"left_children":[1,3,5,7,9,11,13,15,-1,17,19,21,23,25,-1,-1,-1,-1,-1,-1,-1,-1,-1,-1,-1,-1,-1],"loss_changes":[4.682944E1,1.0163582E1,1.2326162E1,3.4506416E0,6.430847E0,7.224206E0,2.0838203E0,2.1883698E0,0E0,5.4326982E0,2.3465407E0,2.2580006E0,4.381104E0,6.767006E-1,0E0,0E0,0E0,0E0,0E0,0E0,0E0,0E0,0E0,0E0,0E0,0E0,0E0],"parents":[2147483647,0,0,1,1,2,2,3,3,4,4,5,5,6,6,7,7,9,9,10,10,11,11,12,12,13,13],"right_children":[2,4,6,8,10,12,14,16,-1,18,20,22,24,26,-1,-1,-1,-1,-1,-1,-1,-1,-1,-1,-1,-1,-1],"split_conditions":[1.25E2,2.9E1,1.55E2,4.53E1,1.4E2,3E1,6.3E1,6.72E-1,2.4329605E-2,1.5E1,3.37E1,2E0,3.05E-1,1.391E0,-2.5358754E-3,-5.2519407E-2,-1.5670767E-2,-2.9443854E-3,-4.947248E-2,-8.106622E-3,5.878484E-2,-5.0368607E-2,-3.7572575E-3,-3.899137E-3,4.2478435E-2,6.465443E-2,1.306131E-2],"split_indices":[1,7,1,5,4,5,7,6,0,4,5,0,6,6,0,0,0,0,0,0,0,0,0,0,0,0,0],"split_type":[0,0,0,0,0,0,0,0,0,0,0,0,0,0,0,0,0,0,0,0,0,0,0,0,0,0,0],"sum_hessian":[1.3185475E2,7.312351E1,5.8731243E1,3.762103E1,3.5502483E1,3.4281574E1,2.444967E1,3.6438942E1,1.1820865E0,3.0455515E1,5.0469666E0,1.1337849E1,2.2943724E1,2.3234058E1,1.2156125E0,3.0593706E1,5.845235E0,2.2712225E1,7.7432914E0,1.539405E0,3.5075617E0,2.8692796E0,8.468569E0,7.0667467E0,1.5876978E1,2.198736E1,1.2466997E0],"tree_param":{"num_deleted":"0","num_feature":"8","num_nodes":"27","size_leaf_vector":"1"}},{"base_weights":[-1.0290706E-3,-5.1317763E-1,6.277104E-1,-8.6431944E-1,-1.348743E-1,2.4459743E-1,1.1367729E0,-9.2067456E-1,2.3601225E-2,-9.8257726E-1,6.684707E-2,-3.6179033E-1,5.440127E-1,1.1986442E0,-2.4668525E-3,-5.138417E-2,-1.5092472E-2,-5.434202E-2,-1.0745273E-2,-9.970746E-3,3.362971E-2,-4.9407512E-2,-3.5934635E-3,3.718392E-2,-1.3579766E-2,6.402096E-2,2.540554E-2],"categories":[],"categories_nodes":[],"categories_segments":[],"categories_sizes":[],"default_left":[0,0,0,0,0,0,0,0,0,0,0,0,0,0,0,0,0,0,0,0,0,0,0,0,0,0,0],"id":11,"left_children":[1,3,5,7,9,11,13,15,-1,17,19,21,23,25,-1,-1,-1,-1,-1,-1,-1,-1,-1,-1,-1,-1,-1],"loss_changes":[4.2732594E1,9.598284E0,1.134041E1,3.2770176E0,6.288338E0,6.5997334E0,1.9163513E0,2.110447E0,0E0,3.314004E-1,5.0261755E0,2.1549306E0,4.1116548E0,7.0985794E-1,0E0,0E0,0E0,0E0,0E0,0E0,0E0,0E0,0E0,0E0,0E0,0E0,0E0],"parents":[2147483647,0,0,1,1,2,2,3,3,4,4,5,5,6,6,7,7,9,9,10,10,11,11,12,12,13,13],"right_children":[2,4,6,8,10,12,14,16,-1,18,20,22,24,26,-1,-1,-1,-1,-1,-1,-1,-1,-1,-1,-1,-1,-1],"split_conditions":[1.25E2,2.9E1,1.55E2,4.53E1,2.67E1,3E1,6.3E1,6.72E-1,2.3601225E-2,1E1,6.12E-1,2E0,1.96E2,3.26E2,-2.4668525E-3,-5.138417E-2,-1.5092472E-2,-5.434202E-2,-1.0745273E-2,-9.970746E-3,3.362971E-2,-4.9407512E-2,-3.5934635E-3,3.718392E-2,-1.3579766E-2,6.402096E-2,2.540554E-2],"split_indices":[1,7,1,5,5,5,7,6,0,0,6,0,4,4,0,0,0,0,0,0,0,0,0,0,0,0,0],"split_type":[0,0,0,0,0,0,0,0,0,0,0,0,0,0,0,0,0,0,0,0,0,0,0,0,0,0,0],"sum_hessian":[1.3070624E2,7.213306E1,5.857319E1,3.674321E1,3.5389843E1,3.4265762E1,2.4307428E1,3.555487E1,1.1883395E0,6.0585904E0,2.9331253E1,1.1257765E1,2.3007996E1,2.3092293E1,1.215136E0,2.9749767E1,5.805104E0,4.9680777E0,1.0905128E0,2.0841127E1,8.490124E0,2.8000517E0,8.457713E0,1.8554049E1,4.453948E0,1.9883394E1,3.2088988E0],"tree_param":{"num_deleted":"0","num_feature":"8","num_nodes":"27","size_leaf_vector":"1"}},{"base_weights":[-1.3812688E-3,-3.9895365E-1,7.4990034E-1,-1.0580702E0,-1.7210136E-1,7.844077E-2,9.6738803E-1,-7.151451E-4,-5.6713678E-2,-5.585778E-1,2.4594587E-1,3.084904E-1,-4.6215784E-2,6.1551416E-1,1.2195562E0,-3.2824364E-2,4.819489E-2,-1.195905E-2,3.3908155E-2,-3.1324282E-2,2.8591862E-2,5.847298E-2,1.5409744E-2,6.5531164E-2,1.8401606E-2],"categories":[],"categories_nodes":[],"categories_segments":[],"categories_sizes":[],"default_left":[0,0,0,0,0,0,0,0,0,0,0,0,0,0,0,0,0,0,0,0,0,0,0,0,0],"id":12,"left_children":[1,3,5,7,9,11,13,-1,-1,15,17,19,-1,21,23,-1,-1,-1,-1,-1,-1,-1,-1,-1,-1],"loss_changes":[3.927118E1,1.2673338E1,6.5686874E0,1.7193203E0,1.0664451E1,3.1041405E0,2.2910538E0,0E0,0E0,5.725209E0,6.8707595E0,2.9902694E0,0E0,2.4195275E0,9.871521E-1,0E0,0E0,0E0,0E0,0E0,0E0,0E0,0E0,0E0,0E0],"parents":[2147483647,0,0,1,1,2,2,3,3,4,4,5,5,6,6,9,9,10,10,11,11,13,13,14,14],"right_children":[2,4,6,8,10,12,14,-1,-1,16,18,20,-1,22,24,-1,-1,-1,-1,-1,-1,-1,-1,-1,-1],"split_conditions":[1.34E2,2.74E1,3E1,1.82E1,3.1E1,6.1E1,1.58E2,-7.151451E-4,-5.6713678E-2,4.54E1,1.08E2,2E0,-4.6215784E-2,7.2E1,1.076E0,-3.2824364E-2,4.819489E-2,-1.195905E-2,3.3908155E-2,-3.1324282E-2,2.8591862E-2,5.847298E-2,1.5409744E-2,6.5531164E-2,1.8401606E-2],"split_indices":[1,5,5,5,7,7,1,0,0,5,1,0,0,2,6,0,0,0,0,0,0,0,0,0,0],"split_type":[0,0,0,0,0,0,0,0,0,0,0,0,0,0,0,0,0,0,0,0,0,0,0,0,0],"sum_hessian":[1.2947694E2,8.497683E1,4.4500107E1,2.0820114E1,6.4156715E1,1.1220186E1,3.3279922E1,1.4974217E0,1.9322691E1,3.316249E1,3.0994226E1,9.689586E0,1.5306003E0,1.5329761E1,1.7950161E1,3.1693129E1,1.4693623E0,1.4813716E1,1.618051E1,1.8263717E0,7.863214E0,4.468999E0,1.0860762E1,1.5728871E1,2.2212896E0],"tree_param":{"num_deleted":"0","num_feature":"8","num_nodes":"25","size_leaf_vector":"1"}},{"base_weights":[-8.152314E-4,-4.7985286E-1,5.7549304E-1,-1.0881827E0,-2.6808095E-1,2.2048385E-1,1.0538163E0,-5.66505E-2,-9.457257E-3,-6.134656E-1,1.2959668E-1,-3.4909162E-1,4.982976E-1,1.1120436E0,-2.3949556E-3,-3.52724E-2,4.0692594E-2,-1.1439386E-2,3.109743E-2,-4.7794785E-2,-3.8111738E-3,-5.6403885E-3,3.8054537E-2,9.245289E-3,5.7732698E-2],"categories":[],"categories_nodes":[],"categories_segments":[],"categories_sizes":[],"default_left":[0,0,0,0,0,0,0,0,0,0,0,0,0,0,0,0,0,0,0,0,0,0,0,0,0],"id":13,"left_children":[1,3,5,7,9,11,13,-1,-1,15,17,19,21,23,-1,-1,-1,-1,-1,-1,-1,-1,-1,-1,-1],"loss_changes":[3.5960518E1,8.871822E0,9.807846E0,5.127678E-1,7.5088067E0,5.7442384E0,1.652132E0,0E0,0E0,4.397566E0,4.7242246E0,1.9354337E0,3.9519038E0,7.2333336E-1,0E0,0E0,0E0,0E0,0E0,0E0,0E0,0E0,0E0,0E0,0E0],"parents":[2147483647,0,0,1,1,2,2,3,3,4,4,5,5,6,6,9,9,10,10,11,11,12,12,13,13],"right_children":[2,4,6,8,10,12,14,-1,-1,16,18,20,22,24,-1,-1,-1,-1,-1,-1,-1,-1,-1,-1,-1],"split_conditions":[1.25E2,2.7E1,1.55E2,1E1,3.1E1,3E1,6.3E1,-5.66505E-2,-9.457257E-3,4.54E1,1.08E2,2E0,3.05E-1,1.37E-1,-2.3949556E-3,-3.52724E-2,4.0692594E-2,-1.1439386E-2,3.109743E-2,-4.7794785E-2,-3.8111738E-3,-5.6403885E-3,3.8054537E-2,9.245289E-3,5.7732698E-2],"split_indices":[1,5,1,0,7,5,7,0,0,5,1,0,6,6,0,0,0,0,0,0,0,0,0,0,0],"split_type":[0,0,0,0,0,0,0,0,0,0,0,0,0,0,0,0,0,0,0,0,0,0,0,0,0],"sum_hessian":[1.2825684E2,7.013049E1,5.812634E1,1.7040882E1,5.308961E1,3.4202423E1,2.3923918E1,1.5983666E1,1.0572162E0,2.8122492E1,2.496712E1,1.1129036E1,2.3073385E1,2.2714071E1,1.2098477E0,2.6895016E1,1.2274764E0,1.4759184E1,1.0207936E1,2.6756918E0,8.453344E0,7.1101065E0,1.5963279E1,1.2326579E0,2.1481413E1],"tree_param":{"num_deleted":"0","num_feature":"8","num_nodes":"25","size_leaf_vector":"1"}},{"base_weights":[-9.120567E-4,-3.709732E-1,6.884262E-1,-1.0195858E0,-1.5671332E-1,3.4383252E-1,1.0820668E0,5.456409E-4,-5.4936197E-2,-5.2187E-1,2.2666103E-1,-1.6095592E-1,6.629211E-1,1.1443179E0,2.3784037E-3,-3.0857239E-2,4.5299508E-2,-1.0941356E-2,3.0852778E-2,-4.749609E-2,6.1585247E-3,-1.3440524E-2,3.888893E-2,6.131607E-2,1.3142027E-2],"categories":[],"categories_nodes":[],"categories_segments":[],"categories_sizes":[],"default_left":[0,0,0,0,0,0,0,0,0,0,0,0,0,0,0,0,0,0,0,0,0,0,0,0,0],"id":14,"left_children":[1,3,5,7,9,11,13,-1,-1,15,17,19,21,23,-1,-1,-1,-1,-1,-1,-1,-1,-1,-1,-1],"loss_changes":[3.2902664E1,1.1503368E1,5.7394886E0,1.6966629E0,9.115128E0,4.2124257E0,1.2699318E0,0E0,0E0,5.0781174E0,5.7087984E0,2.5104072E0,1.9013295E0,1.0766945E0,0E0,0E0,0E0,0E0,0E0,0E0,0E0,0E0,0E0,0E0,0E0],"parents":[2147483647,0,0,1,1,2,2,3,3,4,4,5,5,6,6,9,9,10,10,11,11,12,12,13,13],"right_children":[2,4,6,8,10,12,14,-1,-1,16,18,20,22,24,-1,-1,-1,-1,-1,-1,-1,-1,-1,-1,-1],"split_conditions":[1.34E2,2.74E1,1.59E2,1.82E1,3.1E1,3.16E1,9.4E1,5.456409E-4,-5.4936197E-2,4.54E1,1.08E2,2E0,2.22E-1,5.8E1,2.3784037E-3,-3.0857239E-2,4.5299508E-2,-1.0941356E-2,3.0852778E-2,-4.749609E-2,6.1585247E-3,-1.3440524E-2,3.888893E-2,6.131607E-2,1.3142027E-2],"split_indices":[1,5,1,5,7,5,2,0,0,5,1,0,6,7,0,0,0,0,0,0,0,0,0,0,0],"split_type":[0,0,0,0,0,0,0,0,0,0,0,0,0,0,0,0,0,0,0,0,0,0,0,0,0],"sum_hessian":[1.2697971E2,8.292467E1,4.405505E1,1.9657715E1,6.3266953E1,2.4489962E1,1.9565088E1,1.4634519E0,1.8194263E1,3.2218346E1,3.1048607E1,9.6769285E0,1.4813032E1,1.835445E1,1.2106376E0,3.0735298E1,1.4830462E0,1.4706338E1,1.6342268E1,1.941749E0,7.73518E0,1.478551E0,1.3334481E1,1.6434357E1,1.9200929E0],"tree_param":{"num_deleted":"0","num_feature":"8","num_nodes":"25","size_leaf_vector":"1"}},{"base_weights":[-7.0319825E-4,-4.4825733E-1,5.284683E-1,-1.0527787E0,-2.4649197E-1,2.004381E-1,9.770427E-1,-5.4971047E-2,-8.2493145E-3,-5.7460886E-1,1.1929559E-1,-3.3070508E-1,4.5603722E-1,1.0332836E0,-2.7950092E-3,-3.3214204E-2,3.8123976E-2,-2.562742E-2,1.8020477E-2,2.8312793E-2,-2.4003213E-2,3.2076474E-2,-1.4834525E-2,5.578908E-2,1.9220423E-2],"categories":[],"categories_nodes":[],"categories_segments":[],"categories_sizes":[],"default_left":[0,0,0,0,0,0,0,0,0,0,0,0,0,0,0,0,0,0,0,0,0,0,0,0,0],"id":15,"left_children":[1,3,5,7,9,11,13,-1,-1,15,17,19,21,23,-1,-1,-1,-1,-1,-1,-1,-1,-1,-1,-1],"loss_changes":[3.0246725E1,8.17993E0,8.415333E0,5.229225E-1,6.451627E0,4.9106264E0,1.478775E0,0E0,0E0,3.8886251E0,4.1420727E0,1.8754828E0,3.5539503E0,8.156204E-1,0E0,0E0,0E0,0E0,0E0,0E0,0E0,0E0,0E0,0E0,0E0],"parents":[2147483647,0,0,1,1,2,2,3,3,4,4,5,5,6,6,9,9,10,10,11,11,12,12,13,13],"right_children":[2,4,6,8,10,12,14,-1,-1,16,18,20,22,24,-1,-1,-1,-1,-1,-1,-1,-1,-1,-1,-1],"split_conditions":[1.25E2,2.7E1,1.55E2,1E1,3.1E1,3E1,6.3E1,-5.4971047E-2,-8.2493145E-3,4.54E1,9.5E1,1.26E2,1.96E2,3.26E2,-2.7950092E-3,-3.3214204E-2,3.8123976E-2,-2.562742E-2,1.8020477E-2,2.8312793E-2,-2.4003213E-2,3.2076474E-2,-1.4834525E-2,5.578908E-2,1.9220423E-2],"split_indices":[1,5,1,0,7,5,7,0,0,5,1,1,4,4,0,0,0,0,0,0,0,0,0,0,0],"split_type":[0,0,0,0,0,0,0,0,0,0,0,0,0,0,0,0,0,0,0,0,0,0,0,0,0],"sum_hessian":[1.2571312E2,6.819184E1,5.7521286E1,1.6008867E1,5.2182972E1,3.4060562E1,2.3460724E1,1.498331E1,1.0255581E0,2.7207E1,2.497597E1,1.097023E1,2.309033E1,2.2248997E1,1.2117276E0,2.5968542E1,1.2384588E0,6.5875106E0,1.8388458E1,1.1675277E0,9.802702E0,1.8643742E1,4.4465885E0,1.9100943E1,3.1480544E0],"tree_param":{"num_deleted":"0","num_feature":"8","num_nodes":"25","size_leaf_vector":"1"}},{"base_weights":[-5.973146E-4,-3.4606856E-1,6.359914E-1,-9.838774E-1,-1.4394473E-1,3.1635317E-1,1.0076553E0,1.572761E-3,-1.0659447E0,-4.8693115E-1,2.0577171E-1,-4.9854875E-1,4.8754483E-1,1.0696744E0,7.975842E-4,-5.4930937E-2,-1.8126165E-2,-2.8975055E-2,4.269698E-2,-1.0401652E-2,2.8236667E-2,-4.5005385E-2,1.4754208E-2,-1.4858079E-2,3.8017027E-2,5.7460874E-2,1.1813537E-2],"categories":[],"categories_nodes":[],"categories_segments":[],"categories_sizes":[],"default_left":[0,0,0,0,0,0,0,0,0,0,0,0,0,0,0,0,0,0,0,0,0,0,0,0,0,0,0],"id":16,"left_children":[1,3,5,7,9,11,13,-1,15,17,19,21,23,25,-1,-1,-1,-1,-1,-1,-1,-1,-1,-1,-1,-1,-1],"loss_changes":[2.7808521E1,1.042485E1,4.9655952E0,1.6627636E0,7.706238E0,3.7826285E0,1.2197666E0,0E0,1.8167496E-2,4.5053988E0,4.8856897E0,1.8269421E0,4.8225923E0,9.8210335E-1,0E0,0E0,0E0,0E0,0E0,0E0,0E0,0E0,0E0,0E0,0E0,0E0,0E0],"parents":[2147483647,0,0,1,1,2,2,3,3,4,4,5,5,6,6,8,8,9,9,10,10,11,11,12,12,13,13],"right_children":[2,4,6,8,10,12,14,-1,16,18,20,22,24,26,-1,-1,-1,-1,-1,-1,-1,-1,-1,-1,-1,-1,-1],"split_conditions":[1.34E2,2.74E1,1.59E2,1.82E1,3.1E1,2.22E-1,9.4E1,1.572761E-3,2.7E1,4.54E1,1.08E2,6E0,2E0,5.8E1,7.975842E-4,-5.4930937E-2,-1.8126165E-2,-2.8975055E-2,4.269698E-2,-1.0401652E-2,2.8236667E-2,-4.5005385E-2,1.4754208E-2,-1.4858079E-2,3.8017027E-2,5.7460874E-2,1.1813537E-2],"split_indices":[1,5,1,5,7,6,2,0,5,5,1,0,0,7,0,0,0,0,0,0,0,0,0,0,0,0,0],"split_type":[0,0,0,0,0,0,0,0,0,0,0,0,0,0,0,0,0,0,0,0,0,0,0,0,0,0,0],"sum_hessian":[1.2444577E2,8.096378E1,4.3481987E1,1.8552628E1,6.241116E1,2.4372414E1,1.9109573E1,1.4335487E0,1.711908E1,3.1310675E1,3.1100485E1,3.899221E0,2.0473192E1,1.7910843E1,1.1987308E0,1.582231E1,1.2967689E0,2.9819817E1,1.4908587E0,1.46419525E1,1.6458532E1,2.50008E0,1.3991408E0,5.2582707E0,1.5214921E1,1.600438E1,1.9064629E0],"tree_param":{"num_deleted":"0","num_feature":"8","num_nodes":"27","size_leaf_vector":"1"}},{"base_weights":[-5.233082E-4,-4.1919065E-1,4.8662686E-1,-1.0195026E0,-2.2758701E-1,-9.389667E-2,7.050012E-1,-1.2933812E-2,-5.3200085E-2,-7.3228776E-1,5.925097E-4,-4.216946E-2,1.4639905E-1,2.1676232E-1,8.920956E-1,-5.0091553E-2,1.1849269E-2,-9.9455295E-3,3.9476153E-2,1.7526332E-2,-4.4589352E-2,-4.121805E-2,2.5707558E-2,5.2734703E-2,2.0202955E-2],"categories":[],"categories_nodes":[],"categories_segments":[],"categories_sizes":[],"default_left":[0,0,0,0,0,0,0,0,0,0,0,0,0,0,0,0,0,0,0,0,0,0,0,0,0],"id":17,"left_children":[1,3,5,7,9,11,13,-1,-1,15,17,-1,19,21,23,-1,-1,-1,-1,-1,-1,-1,-1,-1,-1],"loss_changes":[2.5539509E1,7.514003E0,7.4034595E0,2.6668358E-1,6.0277424E0,3.1316912E0,3.6591587E0,0E0,0E0,4.494899E0,5.987172E0,0E0,3.173563E0,4.4504614E0,1.9679317E0,0E0,0E0,0E0,0E0,0E0,0E0,0E0,0E0,0E0,0E0],"parents":[2147483647,0,0,1,1,2,2,3,3,4,4,5,5,6,6,9,9,10,10,12,12,13,13,14,14],"right_children":[2,4,6,8,10,12,14,-1,-1,16,18,-1,20,22,24,-1,-1,-1,-1,-1,-1,-1,-1,-1,-1],"split_conditions":[1.25E2,2.7E1,3.01E1,1.82E1,9.5E1,2E0,3.05E-1,-1.2933812E-2,-5.3200085E-2,6.6E-1,7E0,-4.216946E-2,6.1E1,1.3E2,2.04E2,-5.0091553E-2,1.1849269E-2,-9.9455295E-3,3.9476153E-2,1.7526332E-2,-4.4589352E-2,-4.121805E-2,2.5707558E-2,5.2734703E-2,2.0202955E-2],"split_indices":[1,5,5,5,1,0,6,0,0,6,0,0,7,1,4,0,0,0,0,0,0,0,0,0,0],"split_type":[0,0,0,0,0,0,0,0,0,0,0,0,0,0,0,0,0,0,0,0,0,0,0,0,0],"sum_hessian":[1.2322181E2,6.634392E1,5.6877884E1,1.5006443E1,5.133748E1,1.5703067E1,4.117482E1,1.205659E0,1.3800784E1,1.5295885E1,3.604159E1,3.2029948E0,1.2500072E1,1.2005089E1,2.9169731E1,1.1941505E1,3.3543797E0,2.9363968E1,6.677625E0,1.0999686E1,1.5003859E0,2.2735748E0,9.731514E0,2.100907E1,8.160661E0],"tree_param":{"num_deleted":"0","num_feature":"8","num_nodes":"25","size_leaf_vector":"1"}},{"base_weights":[-1.3721267E-3,-3.2314476E-1,5.847689E-1,-9.5096236E-1,-1.3260704E-1,2.7622145E-1,9.5218664E-1,1.7674884E-3,-1.0355113E0,-4.607726E-1,1.9530445E-1,-4.891194E-1,4.374389E-1,1.013638E0,-5.409508E-7,-5.345546E-2,-1.7362367E-2,-2.7619315E-2,4.161893E-2,-4.6105627E-3,3.290482E-2,-4.3865465E-2,1.3622514E-2,-1.5395678E-2,3.481239E-2,5.4511752E-2,1.1199108E-2],"categories":[],"categories_nodes":[],"categories_segments":[],"categories_sizes":[],"default_left":[0,0,0,0,0,0,0,0,0,0,0,0,0,0,0,0,0,0,0,0,0,0,0,0,0,0,0],"id":18,"left_children":[1,3,5,7,9,11,13,-1,15,17,19,21,23,25,-1,-1,-1,-1,-1,-1,-1,-1,-1,-1,-1,-1,-1],"loss_changes":[2.3412796E1,9.460376E0,4.7246494E0,1.5790806E0,6.8308926E0,3.3384159E0,1.1511879E0,0E0,2.3471832E-2,4.204257E0,4.3233447E0,1.6811639E0,4.351095E0,8.7363434E-1,0E0,0E0,0E0,0E0,0E0,0E0,0E0,0E0,0E0,0E0,0E0,0E0,0E0],"parents":[2147483647,0,0,1,1,2,2,3,3,4,4,5,5,6,6,8,8,9,9,10,10,11,11,12,12,13,13],"right_children":[2,4,6,8,10,12,14,-1,16,18,20,22,24,26,-1,-1,-1,-1,-1,-1,-1,-1,-1,-1,-1,-1,-1],"split_conditions":[1.34E2,2.74E1,1.59E2,1.82E1,3.1E1,2.22E-1,9.4E1,1.7674884E-3,2.7E1,4.54E1,5.28E-1,6E0,2E0,5.8E1,-5.409508E-7,-5.345546E-2,-1.7362367E-2,-2.7619315E-2,4.161893E-2,-4.6105627E-3,3.290482E-2,-4.3865465E-2,1.3622514E-2,-1.5395678E-2,3.481239E-2,5.4511752E-2,1.1199108E-2],"split_indices":[1,5,1,5,7,6,2,0,5,5,6,0,0,7,0,0,0,0,0,0,0,0,0,0,0,0,0],"split_type":[0,0,0,0,0,0,0,0,0,0,0,0,0,0,0,0,0,0,0,0,0,0,0,0,0,0,0],"sum_hessian":[1.2213533E2,7.913916E1,4.2996174E1,1.7496765E1,6.1642395E1,2.432255E1,1.8673622E1,1.4273856E0,1.606938E1,3.0606754E1,3.1035643E1,3.8781347E0,2.0444416E1,1.7480942E1,1.1926811E0,1.4793869E1,1.2755102E0,2.9116802E1,1.489952E0,1.963678E1,1.1398863E1,2.4681075E0,1.4100271E0,5.2203684E0,1.5224047E1,1.558823E1,1.8927118E0],"tree_param":{"num_deleted":"0","num_feature":"8","num_nodes":"27","size_leaf_vector":"1"}},{"base_weights":[-1.2027067E-3,-3.9292946E-1,4.4835922E-1,-9.885718E-1,-2.1162137E-1,-1.037129E-1,6.5727943E-1,-1.2671423E-2,-5.169288E-2,-7.0707154E-1,8.367086E-3,-4.0837176E-2,1.2036873E-1,1.948186E-1,8.35549E-1,-4.8719913E-2,1.1124911E-2,-9.080156E-3,3.7239168E-2,2.339159E-2,-2.3310712E-2,-3.977966E-2,2.3879074E-2,4.967916E-2,1.8287582E-2],"categories":[],"categories_nodes":[],"categories_segments":[],"categories_sizes":[],"default_left":[0,0,0,0,0,0,0,0,0,0,0,0,0,0,0,0,0,0,0,0,0,0,0,0,0],"id":19,"left_children":[1,3,5,7,9,11,13,-1,-1,15,17,-1,19,21,23,-1,-1,-1,-1,-1,-1,-1,-1,-1,-1],"loss_changes":[2.1647459E1,6.8844595E0,6.6699057E0,2.3922253E-1,5.6331754E0,2.7470214E0,3.2717876E0,0E0,0E0,4.1647253E0,5.2753987E0,0E0,2.9665847E0,3.9912527E0,1.8464718E0,0E0,0E0,0E0,0E0,0E0,0E0,0E0,0E0,0E0,0E0],"parents":[2147483647,0,0,1,1,2,2,3,3,4,4,5,5,6,6,9,9,10,10,12,12,13,13,14,14],"right_children":[2,4,6,8,10,12,14,-1,-1,16,18,-1,20,22,24,-1,-1,-1,-1,-1,-1,-1,-1,-1,-1],"split_conditions":[1.25E2,2.7E1,3.01E1,1.82E1,9.5E1,2E0,3.05E-1,-1.2671423E-2,-5.169288E-2,6.6E-1,7E0,-4.0837176E-2,2.4E1,1.3E2,2.04E2,-4.8719913E-2,1.1124911E-2,-9.080156E-3,3.7239168E-2,2.339159E-2,-2.3310712E-2,-3.977966E-2,2.3879074E-2,4.967916E-2,1.8287582E-2],"split_indices":[1,5,5,5,1,0,6,0,0,6,0,0,3,1,4,0,0,0,0,0,0,0,0,0,0],"split_type":[0,0,0,0,0,0,0,0,0,0,0,0,0,0,0,0,0,0,0,0,0,0,0,0,0],"sum_hessian":[1.2092289E2,6.4685234E1,5.623765E1,1.4055842E1,5.0629395E1,1.5577543E1,4.0660107E1,1.1983702E0,1.2857472E1,1.4887091E1,3.5742306E1,3.092457E0,1.24850855E1,1.1895091E1,2.8765017E1,1.1524607E1,3.3624847E0,2.9011679E1,6.730625E0,7.9677978E0,4.517288E0,2.239017E0,9.656075E0,2.0690172E1,8.074844E0],"tree_param":{"num_deleted":"0","num_feature":"8","num_nodes":"25","size_leaf_vector":"1"}},{"base_weights":[-1.8199132E-3,-1.9969435E-1,8.389508E-1,-8.514422E-1,-2.5436882E-2,8.912323E-1,-3.2453462E-3,-9.1558325E-1,-4.5577125E-4,-5.8504385E-1,1.5972967E-1,9.3846506E-1,2.2246032E-3,-3.2544512E-2,-5.5243235E-2,-3.988746E-2,1.1755437E-2,-1.3327204E-3,3.752509E-2,1.7487878E-2,5.19345E-2],"categories":[],"categories_nodes":[],"categories_segments":[],"categories_sizes":[],"default_left":[0,0,0,0,0,0,0,0,0,0,0,0,0,0,0,0,0,0,0,0,0],"id":20,"left_children":[1,3,5,7,9,11,-1,13,-1,15,17,19,-1,-1,-1,-1,-1,-1,-1,-1,-1],"loss_changes":[2.0271175E1,1.1179432E1,1.1548042E0,1.1141148E0,8.263911E0,8.3859634E-1,0E0,2.4758911E-1,0E0,3.6448636E0,6.6301203E0,8.639393E-1,0E0,0E0,0E0,0E0,0E0,0E0,0E0,0E0,0E0],"parents":[2147483647,0,0,1,1,2,2,3,3,4,4,5,5,7,7,9,9,10,10,11,11],"right_children":[2,4,6,8,10,12,-1,14,-1,16,18,20,-1,-1,-1,-1,-1,-1,-1,-1,-1],"split_conditions":[1.55E2,2.74E1,6.3E1,9E1,1E2,1.391E0,-3.2453462E-3,1.4E1,-4.5577125E-4,6.6E-1,7E0,2.7E1,2.2246032E-3,-3.2544512E-2,-5.5243235E-2,-3.988746E-2,1.1755437E-2,-1.3327204E-3,3.752509E-2,1.7487878E-2,5.19345E-2],"split_indices":[1,5,7,2,1,6,0,3,0,6,0,7,0,0,0,0,0,0,0,0,0],"split_type":[0,0,0,0,0,0,0,0,0,0,0,0,0,0,0,0,0,0,0,0,0],"sum_hessian":[1.1983909E2,9.762552E1,2.221357E1,1.977565E1,7.784988E1,2.101214E1,1.2014288E0,1.8295523E1,1.4801275E0,1.8818226E1,5.9031647E1,1.9799368E1,1.2127731E0,9.478892E0,8.81663E0,1.4964517E1,3.853709E0,4.560006E1,1.3431588E1,3.5335426E0,1.6265825E1],"tree_param":{"num_deleted":"0","num_feature":"8","num_nodes":"21","size_leaf_vector":"1"}},{"base_weights":[-1.9400873E-3,-1.9221644E-1,8.1039643E-1,-8.3364177E-1,-2.423829E-2,5.863142E-1,1.1607492E0,-8.980989E-1,-4.4223355E-4,-5.66109E-1,1.5226467E-1,1.3867345E-1,8.17327E-1,2.0133507E-2,6.246428E-2,-3.1658016E-2,-5.451816E-2,-3.8803633E-2,1.1253357E-2,-1.2679585E-3,3.5670757E-2,2.8686825E-2,-2.3938999E-2,4.9340714E-2,1.7459802E-3],"categories":[],"categories_nodes":[],"categories_segments":[],"categories_sizes":[],"default_left":[0,0,0,0,0,0,0,0,0,0,0,0,0,0,0,0,0,0,0,0,0,0,0,0,0],"id":21,"left_children":[1,3,5,7,9,11,13,15,-1,17,19,21,23,-1,-1,-1,-1,-1,-1,-1,-1,-1,-1,-1,-1],"loss_changes":[1.8669586E1,1.05231495E1,1.1190825E0,1.0701208E0,7.6013703E0,1.5414062E0,2.8617859E-2,2.6717854E-1,0E0,3.4169612E0,6.004321E0,2.0614383E0,1.338088E0,0E0,0E0,0E0,0E0,0E0,0E0,0E0,0E0,0E0,0E0,0E0,0E0],"parents":[2147483647,0,0,1,1,2,2,3,3,4,4,5,5,6,6,7,7,9,9,10,10,11,11,12,12],"right_children":[2,4,6,8,10,12,14,16,-1,18,20,22,24,-1,-1,-1,-1,-1,-1,-1,-1,-1,-1,-1,-1],"split_conditions":[1.55E2,2.74E1,7E0,9E1,1E2,1.67E2,2.03E-1,1.4E1,-4.4223355E-4,6.6E-1,7E0,3.4E1,1.076E0,2.0133507E-2,6.246428E-2,-3.1658016E-2,-5.451816E-2,-3.8803633E-2,1.1253357E-2,-1.2679585E-3,3.5670757E-2,2.8686825E-2,-2.3938999E-2,4.9340714E-2,1.7459802E-3],"split_indices":[1,5,0,2,1,1,6,3,0,6,0,7,6,0,0,0,0,0,0,0,0,0,0,0,0],"split_type":[0,0,0,0,0,0,0,0,0,0,0,0,0,0,0,0,0,0,0,0,0,0,0,0,0],"sum_hessian":[1.18777466E2,9.6854324E1,2.192314E1,1.9278082E1,7.757624E1,1.5001696E1,6.9214435E0,1.779829E1,1.479792E0,1.851798E1,5.905826E1,5.6512938E0,9.350402E0,1.3040233E0,5.6174207E0,9.289969E0,8.508321E0,1.464939E1,3.86859E0,4.5584103E1,1.347416E1,3.3568382E0,2.2944553E0,7.470803E0,1.8795991E0],"tree_param":{"num_deleted":"0","num_feature":"8","num_nodes":"25","size_leaf_vector":"1"}},{"base_weights":[-1.4510768E-3,-1.8503815E-1,7.859281E-1,-8.1623447E-1,-2.3105055E-2,5.6575936E-1,1.1336068E0,-9.361632E-1,-2.6594472E-1,-6.4609265E-1,1.21224105E-1,-4.0771686E-2,7.1271396E-1,1.964599E-2,6.1042517E-2,-1.6375508E-2,-5.153651E-2,3.0167354E-2,-3.4557402E-2,-4.559931E-2,9.712871E-3,1.7975363E-3,5.9915937E-2,-2.6672138E-2,2.6401578E-2,4.8145693E-2,8.591349E-3],"categories":[],"categories_nodes":[],"categories_segments":[],"categories_sizes":[],"default_left":[0,0,0,0,0,0,0,0,0,0,0,0,0,0,0,0,0,0,0,0,0,0,0,0,0,0,0],"id":22,"left_children":[1,3,5,7,9,11,13,15,17,19,21,23,25,-1,-1,-1,-1,-1,-1,-1,-1,-1,-1,-1,-1,-1,-1],"loss_changes":[1.730898E1,9.90537E0,1.091753E0,1.0573969E0,7.118709E0,1.4425817E0,2.3181915E-2,5.750656E-1,2.2425344E0,3.5033293E0,5.873212E0,1.4134941E0,1.569448E0,0E0,0E0,0E0,0E0,0E0,0E0,0E0,0E0,0E0,0E0,0E0,0E0,0E0,0E0],"parents":[2147483647,0,0,1,1,2,2,3,3,4,4,5,5,6,6,7,7,8,8,9,9,10,10,11,11,12,12],"right_children":[2,4,6,8,10,12,14,16,18,20,22,24,26,-1,-1,-1,-1,-1,-1,-1,-1,-1,-1,-1,-1,-1,-1],"split_conditions":[1.55E2,2.74E1,7E0,4.3E1,9.5E1,1.62E2,2.03E-1,5.5E1,5.5E1,6.6E-1,4.54E1,2.99E-1,3.7E1,1.964599E-2,6.1042517E-2,-1.6375508E-2,-5.153651E-2,3.0167354E-2,-3.4557402E-2,-4.559931E-2,9.712871E-3,1.7975363E-3,5.9915937E-2,-2.6672138E-2,2.6401578E-2,4.8145693E-2,8.591349E-3],"split_indices":[1,5,0,7,1,1,6,2,7,6,5,6,7,0,0,0,0,0,0,0,0,0,0,0,0,0,0],"split_type":[0,0,0,0,0,0,0,0,0,0,0,0,0,0,0,0,0,0,0,0,0,0,0,0,0,0,0],"sum_hessian":[1.1773568E2,9.609496E1,2.164072E1,1.879473E1,7.730023E1,1.4858666E1,6.7820535E0,1.4855863E1,3.9388664E0,1.3885941E1,6.3414295E1,3.0388534E0,1.1819813E1,1.2946185E0,5.487435E0,2.5979812E0,1.2257881E1,1.1561847E0,2.7826817E0,1.0483599E1,3.4023416E0,5.9719677E1,3.694618E0,1.661717E0,1.3771362E0,7.548041E0,4.271772E0],"tree_param":{"num_deleted":"0","num_feature":"8","num_nodes":"27","size_leaf_vector":"1"}},{"base_weights":[-7.1557827E-4,-3.48568E-1,3.9149383E-1,-6.6972274E-1,-5.2928723E-2,1.7260328E-1,8.251281E-1,-9.852498E-1,-3.0406895E-1,-2.1697377E-1,7.4512386E-1,-1.1539594E-1,6.4828444E-1,8.8762534E-1,-2.7952706E-3,-5.1847078E-2,-5.640381E-3,-2.8053183E-2,7.963668E-3,1.987377E-3,-4.5449264E-2,1.0902763E-2,7.1402386E-2,6.277969E-2,-1.7225815E-2,-1.7748838E-2,4.8457697E-2,5.1320344E-2,1.8302761E-2],"categories":[],"categories_nodes":[],"categories_segments":[],"categories_sizes":[],"default_left":[0,0,0,0,0,0,0,0,0,0,0,0,0,0,0,0,0,0,0,0,0,0,0,0,0,0,0,0,0],"id":23,"left_children":[1,3,5,7,9,11,13,15,17,19,21,23,25,27,-1,-1,-1,-1,-1,-1,-1,-1,-1,-1,-1,-1,-1,-1,-1],"loss_changes":[1.6197025E1,5.9382215E0,5.154295E0,3.1698284E0,4.592602E0,5.3283477E0,1.0657749E0,5.9086704E-1,1.9202228E0,5.1612744E0,1.8470075E0,8.202434E0,5.048176E0,8.759098E-1,0E0,0E0,0E0,0E0,0E0,0E0,0E0,0E0,0E0,0E0,0E0,0E0,0E0,0E0,0E0],"parents":[2147483647,0,0,1,1,2,2,3,3,4,4,5,5,6,6,7,7,8,8,9,9,10,10,11,11,12,12,13,13],"right_children":[2,4,6,8,10,12,14,16,18,20,22,24,26,28,-1,-1,-1,-1,-1,-1,-1,-1,-1,-1,-1,-1,-1,-1,-1],"split_conditions":[1.25E2,2.9E1,1.59E2,3.11E1,1.4E2,4.1E1,9.4E1,1.18E2,5.09E-1,1.5E1,8.2E1,5.5E1,2.22E-1,4.8E1,-2.7952706E-3,-5.1847078E-2,-5.640381E-3,-2.8053183E-2,7.963668E-3,1.987377E-3,-4.5449264E-2,1.0902763E-2,7.1402386E-2,6.277969E-2,-1.7225815E-2,-1.7748838E-2,4.8457697E-2,5.1320344E-2,1.8302761E-2],"split_indices":[1,7,1,5,4,7,2,1,6,4,2,2,6,7,0,0,0,0,0,0,0,0,0,0,0,0,0,0,0],"split_type":[0,0,0,0,0,0,0,0,0,0,0,0,0,0,0,0,0,0,0,0,0,0,0,0,0,0,0,0,0],"sum_hessian":[1.1671933E2,6.191653E1,5.48028E1,2.907109E1,3.2845444E1,3.734817E1,1.7454626E1,1.4695595E1,1.4375496E1,2.7849012E1,4.99643E0,2.37352E1,1.3612971E1,1.6291487E1,1.1631395E0,1.3695587E1,1.000007E0,9.111089E0,5.264407E0,2.100075E1,6.8482623E0,3.5646172E0,1.4318125E0,2.7571504E0,2.097805E1,3.273E0,1.0339971E1,1.2103121E1,4.188367E0],"tree_param":{"num_deleted":"0","num_feature":"8","num_nodes":"29","size_leaf_vector":"1"}},{"base_weights":[9.7034404E-5,-5.423155E-1,2.3654535E-1,-7.7186066E-1,2.4399808E-1,5.043956E-2,7.396498E-1,-8.922746E-1,1.388655E-1,-3.5922736E-1,8.563863E-1,-5.22591E-2,1.0132698E0,5.231362E-1,1.088642E0,-4.8664894E-2,-9.937756E-3,-1.958969E-2,2.6399432E-2,1.7383887E-2,-4.8333388E-2,-7.2948396E-4,6.052006E-2,-9.872934E-3,2.6855657E-2,1.3245026E-2,5.8251705E-2,5.670745E-3,3.7020523E-2,1.9313615E-2,5.925702E-2],"categories":[],"categories_nodes":[],"categories_segments":[],"categories_sizes":[],"default_left":[0,0,0,0,0,0,0,0,0,0,0,0,0,0,0,0,0,0,0,0,0,0,0,0,0,0,0,0,0,0,0],"id":24,"left_children":[1,3,5,7,9,11,13,15,17,19,21,23,25,27,29,-1,-1,-1,-1,-1,-1,-1,-1,-1,-1,-1,-1,-1,-1,-1,-1],"loss_changes":[1.5098422E1,6.6390295E0,7.6389937E0,3.1839275E0,3.5715296E0,6.0767975E0,1.0977583E0,1.1989574E0,1.0584011E0,2.549883E0,1.460666E0,4.898282E0,3.6382723E-1,1.2996154E0,5.2095413E-2,0E0,0E0,0E0,0E0,0E0,0E0,0E0,0E0,0E0,0E0,0E0,0E0,0E0,0E0,0E0,0E0],"parents":[2147483647,0,0,1,1,2,2,3,3,4,4,5,5,6,6,7,7,8,8,9,9,10,10,11,11,12,12,13,13,14,14],"right_children":[2,4,6,8,10,12,14,16,18,20,22,24,26,28,30,-1,-1,-1,-1,-1,-1,-1,-1,-1,-1,-1,-1,-1,-1,-1,-1],"split_conditions":[1.07E2,6.6E-1,1.55E2,3.88E1,3E0,4.29E1,7E0,8.2E1,2.87E-1,8.71E-1,7.4E1,8E0,2.7E1,1.67E2,3.8E1,-4.8664894E-2,-9.937756E-3,-1.958969E-2,2.6399432E-2,1.7383887E-2,-4.8333388E-2,-7.2948396E-4,6.052006E-2,-9.872934E-3,2.6855657E-2,1.3245026E-2,5.8251705E-2,5.670745E-3,3.7020523E-2,1.9313615E-2,5.925702E-2],"split_indices":[1,6,1,5,0,5,0,2,6,6,2,0,7,1,7,0,0,0,0,0,0,0,0,0,0,0,0,0,0,0,0],"split_type":[0,0,0,0,0,0,0,0,0,0,0,0,0,0,0,0,0,0,0,0,0,0,0,0,0,0,0,0,0,0,0],"sum_hessian":[1.15723946E2,3.4739025E1,8.0984924E1,2.6903563E1,7.8354626E0,5.9919914E1,2.106501E1,2.3779728E1,3.1238365E0,4.155519E0,3.6799433E0,5.4999237E1,4.920677E0,1.454212E1,6.5228896E0,2.0930962E1,2.8487647E0,1.3186665E0,1.8051699E0,2.118159E0,2.03736E0,1.3405648E0,2.3393784E0,4.4661304E1,1.0337931E1,1.2925278E0,3.6281495E0,5.566734E0,8.975386E0,1.3922436E0,5.130646E0],"tree_param":{"num_deleted":"0","num_feature":"8","num_nodes":"31","size_leaf_vector":"1"}},{"base_weights":[1.6008874E-3,-5.253647E-1,2.2835362E-1,-7.522988E-1,2.3479383E-1,4.9433216E-2,7.170804E-1,-8.727272E-1,1.331299E-1,-3.491106E-1,8.216601E-1,-4.9447086E-2,9.7547793E-1,5.039398E-1,1.0650367E0,-4.77091E-2,-9.608059E-3,-1.9124119E-2,2.5349576E-2,1.6697576E-2,-4.7373764E-2,-7.0870016E-4,5.7936527E-2,-1.2470335E-2,1.7629437E-2,1.0997789E-2,5.5639196E-2,3.4915373E-2,3.6366556E-3,1.7057285E-2,5.7784606E-2],"categories":[],"categories_nodes":[],"categories_segments":[],"categories_sizes":[],"default_left":[0,0,0,0,0,0,0,0,0,0,0,0,0,0,0,0,0,0,0,0,0,0,0,0,0,0,0,0,0,0,0],"id":25,"left_children":[1,3,5,7,9,11,13,15,17,19,21,23,25,27,29,-1,-1,-1,-1,-1,-1,-1,-1,-1,-1,-1,-1,-1,-1,-1,-1],"loss_changes":[1.39504E1,6.23577E0,7.1017036E0,3.025817E0,3.315144E0,5.617494E0,1.0799875E0,1.1555367E0,9.9094E-1,2.413805E0,1.3421648E0,4.5822153E0,3.6895132E-1,1.241312E0,9.0218544E-2,0E0,0E0,0E0,0E0,0E0,0E0,0E0,0E0,0E0,0E0,0E0,0E0,0E0,0E0,0E0,0E0],"parents":[2147483647,0,0,1,1,2,2,3,3,4,4,5,5,6,6,7,7,8,8,9,9,10,10,11,11,12,12,13,13,14,14],"right_children":[2,4,6,8,10,12,14,16,18,20,22,24,26,28,30,-1,-1,-1,-1,-1,-1,-1,-1,-1,-1,-1,-1,-1,-1,-1,-1],"split_conditions":[1.07E2,6.6E-1,1.55E2,3.88E1,3E0,4.29E1,7E0,8.2E1,2.87E-1,8.71E-1,7.4E1,4E1,8E1,3.7E1,2.03E-1,-4.77091E-2,-9.608059E-3,-1.9124119E-2,2.5349576E-2,1.6697576E-2,-4.7373764E-2,-7.0870016E-4,5.7936527E-2,-1.2470335E-2,1.7629437E-2,1.0997789E-2,5.5639196E-2,3.4915373E-2,3.6366556E-3,1.7057285E-2,5.7784606E-2],"split_indices":[1,6,1,5,0,5,0,2,6,6,2,7,2,7,6,0,0,0,0,0,0,0,0,0,0,0,0,0,0,0,0],"split_type":[0,0,0,0,0,0,0,0,0,0,0,0,0,0,0,0,0,0,0,0,0,0,0,0,0,0,0,0,0,0,0],"sum_hessian":[1.1474466E2,3.4124226E1,8.062043E1,2.6286976E1,7.837248E0,5.9821304E1,2.079913E1,2.3152338E1,3.134639E0,4.1316133E0,3.7056344E0,5.4905285E1,4.916019E0,1.4416554E1,6.3825755E0,2.0318447E1,2.8338912E0,1.3078524E0,1.8267866E0,2.1356072E0,1.996006E0,1.340225E0,2.3654094E0,3.692141E1,1.7983873E1,1.1561694E0,3.7598495E0,9.510323E0,4.906232E0,1.2404647E0,5.142111E0],"tree_param":{"num_deleted":"0","num_feature":"8","num_nodes":"31","size_leaf_vector":"1"}},{"base_weights":[2.8306576E-3,-5.090106E-1,2.2025849E-1,-7.332216E-1,2.2594878E-1,4.820079E-2,6.951866E-1,-8.536205E-1,1.275847E-1,-1.1322285E-1,6.2368758E-2,-4.6994265E-2,9.379315E-1,4.8520955E-1,1.0428283E0,-4.677609E-2,-9.2887385E-3,-1.8670496E-2,2.4348632E-2,-3.2919627E-2,2.8684912E-2,-9.220059E-3,2.5274957E-2,1.1229786E-2,5.455962E-2,4.4711526E-3,3.499602E-2,1.761075E-2,5.7047494E-2],"categories":[],"categories_nodes":[],"categories_segments":[],"categories_sizes":[],"default_left":[0,0,0,0,0,0,0,0,0,0,0,0,0,0,0,0,0,0,0,0,0,0,0,0,0,0,0,0,0],"id":26,"left_children":[1,3,5,7,9,11,13,15,17,19,-1,21,23,25,27,-1,-1,-1,-1,-1,-1,-1,-1,-1,-1,-1,-1,-1,-1],"loss_changes":[1.2884868E1,5.8541737E0,6.605915E0,2.874732E0,3.2015996E0,5.18675E0,1.0658617E0,1.1138992E0,9.2807734E-1,3.2045364E0,0E0,4.3294697E0,4.01721E-1,1.2371562E0,8.86426E-2,0E0,0E0,0E0,0E0,0E0,0E0,0E0,0E0,0E0,0E0,0E0,0E0,0E0,0E0],"parents":[2147483647,0,0,1,1,2,2,3,3,4,4,5,5,6,6,7,7,8,8,9,9,11,11,12,12,13,13,14,14],"right_children":[2,4,6,8,10,12,14,16,18,20,-1,22,24,26,28,-1,-1,-1,-1,-1,-1,-1,-1,-1,-1,-1,-1,-1,-1],"split_conditions":[1.07E2,6.6E-1,1.55E2,3.88E1,1.55E2,4.29E1,7E0,8.2E1,2.87E-1,3E0,6.2368758E-2,8E0,2.7E1,1.67E2,3.8E1,-4.677609E-2,-9.2887385E-3,-1.8670496E-2,2.4348632E-2,-3.2919627E-2,2.8684912E-2,-9.220059E-3,2.5274957E-2,1.1229786E-2,5.455962E-2,4.4711526E-3,3.499602E-2,1.761075E-2,5.7047494E-2],"split_indices":[1,6,1,5,4,5,0,2,6,0,0,0,7,1,7,0,0,0,0,0,0,0,0,0,0,0,0,0,0],"split_type":[0,0,0,0,0,0,0,0,0,0,0,0,0,0,0,0,0,0,0,0,0,0,0,0,0,0,0,0,0],"sum_hessian":[1.1377151E2,3.352056E1,8.0250946E1,2.5686771E1,7.833791E0,5.9717785E1,2.0533163E1,2.2542194E1,3.1445768E0,6.548476E0,1.2853143E0,5.4801575E1,4.9162097E0,1.4294776E1,6.238387E0,1.9722698E1,2.8194969E0,1.297215E0,1.8473619E0,3.6740923E0,2.8743842E0,4.442033E1,1.0381245E1,1.3054739E0,3.6107357E0,5.525622E0,8.769154E0,1.3470392E0,4.891348E0],"tree_param":{"num_deleted":"0","num_feature":"8","num_nodes":"29","size_leaf_vector":"1"}},{"base_weights":[4.4099702E-3,-3.0300957E-1,3.4357652E-1,-9.0101445E-1,-1.4437392E-1,-1.2764849E-1,5.256304E-1,-7.455238E-3,-4.78343E-2,-4.3075544E-1,1.4102648E-1,4.674346E-2,-4.7513083E-2,8.614647E-2,7.025808E-1,-3.0423818E-2,8.59732E-3,-1.7360616E-2,1.536532E-2,-1.7544799E-2,3.775372E-2,-2.387081E-2,2.5280789E-2,4.3570872E-2,1.0782956E-2],"categories":[],"categories_nodes":[],"categories_segments":[],"categories_sizes":[],"default_left":[0,0,0,0,0,0,0,0,0,0,0,0,0,0,0,0,0,0,0,0,0,0,0,0,0],"id":27,"left_children":[1,3,5,7,9,11,13,-1,-1,15,17,19,-1,21,23,-1,-1,-1,-1,-1,-1,-1,-1,-1,-1],"loss_changes":[1.1969426E1,5.5830708E0,4.7489057E0,3.779087E-1,4.048395E0,2.3416142E0,3.015997E0,0E0,0E0,2.7394938E0,2.1516886E0,4.254751E0,0E0,3.19538E0,2.119297E0,0E0,0E0,0E0,0E0,0E0,0E0,0E0,0E0,0E0,0E0],"parents":[2147483647,0,0,1,1,2,2,3,3,4,4,5,5,6,6,9,9,10,10,11,11,13,13,14,14],"right_children":[2,4,6,8,10,12,14,-1,-1,16,18,20,-1,22,24,-1,-1,-1,-1,-1,-1,-1,-1,-1,-1],"split_conditions":[1.25E2,2.7E1,3.01E1,1.82E1,3.1E1,6.1E1,3.05E-1,-7.455238E-3,-4.78343E-2,8E1,9.5E1,4.1E1,-4.7513083E-2,3.8E1,2.04E2,-3.0423818E-2,8.59732E-3,-1.7360616E-2,1.536532E-2,-1.7544799E-2,3.775372E-2,-2.387081E-2,2.5280789E-2,4.3570872E-2,1.0782956E-2],"split_indices":[1,5,5,5,7,7,6,0,0,2,1,7,0,7,4,0,0,0,0,0,0,0,0,0,0],"split_type":[0,0,0,0,0,0,0,0,0,0,0,0,0,0,0,0,0,0,0,0,0,0,0,0,0],"sum_hessian":[1.1279808E2,5.922412E1,5.357396E1,1.1435652E1,4.778847E1,1.5013118E1,3.856084E1,1.041897E0,1.0393755E1,2.3599022E1,2.4189447E1,1.3165287E1,1.8478312E0,1.1495877E1,2.7064964E1,1.8217562E1,5.3814607E0,5.868873E0,1.8320576E1,8.75504E0,4.410247E0,4.8464556E0,6.6494217E0,1.9510273E1,7.554691E0],"tree_param":{"num_deleted":"0","num_feature":"8","num_nodes":"25","size_leaf_vector":"1"}},{"base_weights":[3.6722838E-3,-1.4625968E-1,6.633304E-1,-7.6027477E-1,-3.7833197E-5,4.575421E-1,1.010325E0,5.9493736E-4,-8.3053243E-1,-5.602743E-1,1.2110814E-1,6.525291E-1,3.5755783E-2,1.4990272E-2,5.5237737E-2,-4.654776E-2,-1.3785916E-2,-4.555106E-2,4.5866226E-3,2.3595989E-3,5.2192982E-2,-5.4203444E-3,4.786084E-2,4.2835463E-2,-1.9845206E-2],"categories":[],"categories_nodes":[],"categories_segments":[],"categories_sizes":[],"default_left":[0,0,0,0,0,0,0,0,0,0,0,0,0,0,0,0,0,0,0,0,0,0,0,0,0],"id":28,"left_children":[1,3,5,7,9,11,13,-1,15,17,19,21,23,-1,-1,-1,-1,-1,-1,-1,-1,-1,-1,-1,-1],"loss_changes":[1.1255872E1,8.327286E0,1.0426683E0,9.776783E-1,5.2199454E0,1.215014E0,1.3966608E-1,0E0,6.5514183E-1,3.2107234E0,4.263862E0,2.4776626E0,2.4066033E0,0E0,0E0,0E0,0E0,0E0,0E0,0E0,0E0,0E0,0E0,0E0,0E0],"parents":[2147483647,0,0,1,1,2,2,3,3,4,4,5,5,6,6,8,8,9,9,10,10,11,11,12,12],"right_children":[2,4,6,8,10,12,14,-1,16,18,20,22,24,-1,-1,-1,-1,-1,-1,-1,-1,-1,-1,-1,-1],"split_conditions":[1.55E2,2.74E1,7E0,1.82E1,9.5E1,3.7E1,2.03E-1,5.9493736E-4,1.34E2,3.1E1,4.54E1,3.28E-1,1.8E-1,1.4990272E-2,5.5237737E-2,-4.654776E-2,-1.3785916E-2,-4.555106E-2,4.5866226E-3,2.3595989E-3,5.2192982E-2,-5.4203444E-3,4.786084E-2,4.2835463E-2,-1.9845206E-2],"split_indices":[1,5,0,5,1,7,6,0,1,3,5,6,6,0,0,0,0,0,0,0,0,0,0,0,0],"split_type":[0,0,0,0,0,0,0,0,0,0,0,0,0,0,0,0,0,0,0,0,0,0,0,0,0],"sum_hessian":[1.1182527E2,9.174995E1,2.0075327E1,1.6839216E1,7.491073E1,1.40571785E1,6.0181494E0,1.4736428E0,1.5365573E1,1.267424E1,6.2236492E1,9.239022E0,4.8181562E0,1.1957617E0,4.8223877E0,1.2436565E1,2.9290078E0,7.982694E0,4.6915464E0,5.8594013E1,3.642477E0,2.8258538E0,6.4131684E0,1.3246297E0,3.4935262E0],"tree_param":{"num_deleted":"0","num_feature":"8","num_nodes":"25","size_leaf_vector":"1"}},{"base_weights":[4.2552394E-3,-4.704246E-1,2.0071653E-1,-6.9679004E-1,2.445179E-1,4.339664E-2,6.4534265E-1,-8.185177E-1,1.2735078E-1,-8.978079E-2,6.090209E-2,-4.4735175E-2,8.659683E-1,4.431281E-1,9.9043983E-1,-4.5142572E-2,-8.198334E-3,-1.8513294E-2,2.4098871E-2,3.2153293E-2,-2.8029388E-2,-8.730441E-3,2.3651328E-2,9.72846E-3,5.0752487E-2,3.1607646E-2,1.9024293E-3,5.4711152E-2,1.4939426E-2],"categories":[],"categories_nodes":[],"categories_segments":[],"categories_sizes":[],"default_left":[0,0,0,0,0,0,0,0,0,0,0,0,0,0,0,0,0,0,0,0,0,0,0,0,0,0,0,0,0],"id":29,"left_children":[1,3,5,7,9,11,13,15,17,19,-1,21,23,25,27,-1,-1,-1,-1,-1,-1,-1,-1,-1,-1,-1,-1,-1,-1],"loss_changes":[1.0532746E1,5.521483E0,5.5585847E0,2.6496706E0,2.9380128E0,4.393193E0,1.0127039E0,1.0797491E0,9.07398E-1,2.9141388E0,0E0,3.794705E0,3.8923836E-1,1.1187983E0,1.6661644E-1,0E0,0E0,0E0,0E0,0E0,0E0,0E0,0E0,0E0,0E0,0E0,0E0,0E0,0E0],"parents":[2147483647,0,0,1,1,2,2,3,3,4,4,5,5,6,6,7,7,8,8,9,9,11,11,12,12,13,13,14,14],"right_children":[2,4,6,8,10,12,14,16,18,20,-1,22,24,26,28,-1,-1,-1,-1,-1,-1,-1,-1,-1,-1,-1,-1,-1,-1],"split_conditions":[1.07E2,6.6E-1,1.55E2,3.88E1,1.55E2,4.29E1,7E0,8.2E1,2.87E-1,1.5E1,6.090209E-2,8E0,2.7E1,3.7E1,1E1,-4.5142572E-2,-8.198334E-3,-1.8513294E-2,2.4098871E-2,3.2153293E-2,-2.8029388E-2,-8.730441E-3,2.3651328E-2,9.72846E-3,5.0752487E-2,3.1607646E-2,1.9024293E-3,5.4711152E-2,1.4939426E-2],"split_indices":[1,6,1,5,4,5,0,2,6,4,0,0,7,7,0,0,0,0,0,0,0,0,0,0,0,0,0,0,0],"split_type":[0,0,0,0,0,0,0,0,0,0,0,0,0,0,0,0,0,0,0,0,0,0,0,0,0,0,0,0,0],"sum_hessian":[1.1093169E2,3.206452E1,7.8867165E1,2.4372938E1,7.6915827E0,5.9065804E1,1.9801361E1,2.1242231E1,3.1307075E0,6.401237E0,1.2903454E0,5.420391E1,4.86189E0,1.3925554E1,5.875807E0,1.848167E1,2.7605608E0,1.284367E0,1.8463405E0,2.3607192E0,4.040518E0,4.386398E1,1.0339934E1,1.302247E0,3.5596426E0,9.112682E0,4.812872E0,4.6030664E0,1.2727404E0],"tree_param":{"num_deleted":"0","num_feature":"8","num_nodes":"29","size_leaf_vector":"1"}},{"base_weights":[5.7592676E-3,-5.870594E-1,1.5380582E-1,-8.644449E-1,-5.941198E-2,-2.6008803E-1,3.2619902E-1,-9.72277E-1,1.1058982E-2,-4.9217305E-1,4.4531345E-1,-4.240265E-1,4.158606E-1,7.425845E-2,6.3611984E-1,-1.5795035E-2,-5.1324517E-2,-4.1541126E-2,1.3401184E-3,4.8732184E-2,-3.4066778E-2,-3.1462613E-2,6.435646E-3,4.6376012E-2,-3.9888352E-2,-2.7575018E-3,6.117649E-2,4.4090398E-2,6.8000713E-3],"categories":[],"categories_nodes":[],"categories_segments":[],"categories_sizes":[],"default_left":[0,0,0,0,0,0,0,0,0,0,0,0,0,0,0,0,0,0,0,0,0,0,0,0,0,0,0,0,0],"id":30,"left_children":[1,3,5,7,9,11,13,15,-1,17,19,21,23,25,27,-1,-1,-1,-1,-1,-1,-1,-1,-1,-1,-1,-1,-1,-1],"loss_changes":[9.833406E0,3.2258916E0,6.479629E0,1.9244757E0,2.138933E0,3.1582508E0,4.9276037E0,1.549921E-1,0E0,9.3738294E-1,3.3967419E0,2.593823E0,4.31502E0,5.4626746E0,3.3742285E0,0E0,0E0,0E0,0E0,0E0,0E0,0E0,0E0,0E0,0E0,0E0,0E0,0E0,0E0],"parents":[2147483647,0,0,1,1,2,2,3,3,4,4,5,5,6,6,7,7,9,9,10,10,11,11,12,12,13,13,14,14],"right_children":[2,4,6,8,10,12,14,16,-1,18,20,22,24,26,28,-1,-1,-1,-1,-1,-1,-1,-1,-1,-1,-1,-1,-1,-1],"split_conditions":[1E2,3.41E1,2.99E1,1E1,7.5E1,8E0,5.09E-1,1.63E-1,1.1058982E-2,4.93E-1,3.3E1,4.1E1,5.5E1,4.54E1,3.86E1,-1.5795035E-2,-5.1324517E-2,-4.1541126E-2,1.3401184E-3,4.8732184E-2,-3.4066778E-2,-3.1462613E-2,6.435646E-3,4.6376012E-2,-3.9888352E-2,-2.7575018E-3,6.117649E-2,4.4090398E-2,6.8000713E-3],"split_indices":[1,5,5,0,2,0,6,6,0,6,3,7,7,5,5,0,0,0,0,0,0,0,0,0,0,0,0,0,0],"split_type":[0,0,0,0,0,0,0,0,0,0,0,0,0,0,0,0,0,0,0,0,0,0,0,0,0,0,0,0,0],"sum_hessian":[1.10013954E2,2.1391441E1,8.862251E1,1.3602352E1,7.78909E0,2.5909191E1,6.271332E1,1.2468316E1,1.1340358E0,4.2068915E0,3.5821984E0,2.1151896E1,4.7572956E0,3.5276215E1,2.7437107E1,1.4721057E0,1.099621E1,2.1821036E0,2.0247881E0,2.5289483E0,1.0532502E0,1.5323888E1,5.828008E0,3.5122807E0,1.245015E0,3.256176E1,2.7144558E0,1.788683E1,9.550279E0],"tree_param":{"num_deleted":"0","num_feature":"8","num_nodes":"29","size_leaf_vector":"1"}},{"base_weights":[5.4523754E-3,-1.3210171E-1,6.172628E-1,-7.2903305E-1,4.195786E-3,4.1924015E-1,9.6220094E-1,1.0709194E-3,-8.005561E-1,-1.2257013E-1,4.66271E-1,4.014869E-2,6.3192797E-1,1.4099563E-2,5.3333193E-2,-4.52075E-2,-1.2932658E-2,-3.3709176E-2,7.564271E-4,-3.7387352E-2,3.9708428E-2,2.325175E-2,-2.5598604E-2,4.125442E-2,-6.694846E-3],"categories":[],"categories_nodes":[],"categories_segments":[],"categories_sizes":[],"default_left":[0,0,0,0,0,0,0,0,0,0,0,0,0,0,0,0,0,0,0,0,0,0,0,0,0],"id":31,"left_children":[1,3,5,7,9,11,13,-1,15,17,19,21,23,-1,-1,-1,-1,-1,-1,-1,-1,-1,-1,-1,-1],"loss_changes":[9.36289E0,7.3959055E0,9.9144125E-1,9.2405605E-1,4.4484987E0,1.1634989E0,1.735425E-1,0E0,6.3359547E-1,4.538845E0,7.10136E0,1.731779E0,1.4977095E0,0E0,0E0,0E0,0E0,0E0,0E0,0E0,0E0,0E0,0E0,0E0,0E0],"parents":[2147483647,0,0,1,1,2,2,3,3,4,4,5,5,6,6,8,8,9,9,10,10,11,11,12,12],"right_children":[2,4,6,8,10,12,14,-1,16,18,20,22,24,-1,-1,-1,-1,-1,-1,-1,-1,-1,-1,-1,-1],"split_conditions":[1.55E2,2.74E1,7E0,1.82E1,4.3E1,1.67E2,3.8E1,1.0709194E-3,1.34E2,9.5E1,2.22E-1,3.4E1,1.076E0,1.4099563E-2,5.3333193E-2,-4.52075E-2,-1.2932658E-2,-3.3709176E-2,7.564271E-4,-3.7387352E-2,3.9708428E-2,2.325175E-2,-2.5598604E-2,4.125442E-2,-6.694846E-3],"split_indices":[1,5,0,5,7,1,7,0,1,1,6,7,6,0,0,0,0,0,0,0,0,0,0,0,0],"split_type":[0,0,0,0,0,0,0,0,0,0,0,0,0,0,0,0,0,0,0,0,0,0,0,0,0],"sum_hessian":[1.092861E2,8.986559E1,1.9420511E1,1.5896428E1,7.396916E1,1.3745106E1,5.6754045E0,1.4441643E0,1.4452264E1,5.862162E1,1.5347542E1,5.3672934E0,8.377812E0,1.2480668E0,4.427338E0,1.15716715E1,2.8805928E0,1.093211E1,4.7689514E1,2.9914553E0,1.2356086E1,3.1222699E0,2.2450235E0,6.6285415E0,1.7492713E0],"tree_param":{"num_deleted":"0","num_feature":"8","num_nodes":"25","size_leaf_vector":"1"}},{"base_weights":[5.26487E-3,-1.274528E-1,5.994853E-1,-7.1334505E-1,3.5251654E-3,4.0432444E-1,9.4383425E-1,1.038933E-3,-7.851999E-1,-1.865798E-1,2.8798053E-1,5.471458E-1,-1.14559844E-1,1.2216877E-2,5.224393E-2,-4.4517532E-2,-1.2509947E-2,-1.4097566E-2,5.544376E-2,5.0483095E-3,4.826657E-2,6.3399547E-3,4.8661713E-2,2.8658185E-2,-4.792487E-2],"categories":[],"categories_nodes":[],"categories_segments":[],"categories_sizes":[],"default_left":[0,0,0,0,0,0,0,0,0,0,0,0,0,0,0,0,0,0,0,0,0,0,0,0,0],"id":32,"left_children":[1,3,5,7,9,11,13,-1,15,17,19,21,23,-1,-1,-1,-1,-1,-1,-1,-1,-1,-1,-1,-1],"loss_changes":[8.705332E0,6.929313E0,9.726329E-1,8.8653564E-1,4.0968843E0,1.1454968E0,2.0695257E-1,0E0,6.239958E-1,5.9246464E0,3.7463894E0,1.9597275E0,2.8596773E0,0E0,0E0,0E0,0E0,0E0,0E0,0E0,0E0,0E0,0E0,0E0,0E0],"parents":[2147483647,0,0,1,1,2,2,3,3,4,4,5,5,6,6,8,8,9,9,10,10,11,11,12,12],"right_children":[2,4,6,8,10,12,14,-1,16,18,20,22,24,-1,-1,-1,-1,-1,-1,-1,-1,-1,-1,-1,-1],"split_conditions":[1.55E2,2.74E1,7E0,1.82E1,5.09E-1,2.5E2,2.03E-1,1.038933E-3,1.34E2,4.54E1,8E0,3.41E1,3E1,1.2216877E-2,5.224393E-2,-4.4517532E-2,-1.2509947E-2,-1.4097566E-2,5.544376E-2,5.0483095E-3,4.826657E-2,6.3399547E-3,4.8661713E-2,2.8658185E-2,-4.792487E-2],"split_indices":[1,5,0,5,6,4,6,0,1,5,0,5,7,0,0,0,0,0,0,0,0,0,0,0,0],"split_type":[0,0,0,0,0,0,0,0,0,0,0,0,0,0,0,0,0,0,0,0,0,0,0,0,0],"sum_hessian":[1.0841589E2,8.926441E1,1.9151476E1,1.5496953E1,7.376746E1,1.3611364E1,5.5401115E0,1.4449604E0,1.4051992E1,4.442307E1,2.9344393E1,1.0630801E1,2.980563E0,1.1307089E0,4.409403E0,1.1188723E1,2.8632703E0,4.2105602E1,2.3174655E0,2.389588E1,5.448513E0,6.0046525E0,4.6261487E0,1.8190595E0,1.1615033E0],"tree_param":{"num_deleted":"0","num_feature":"8","num_nodes":"25","size_leaf_vector":"1"}},{"base_weights":[6.2995423E-3,-5.534776E-1,1.4231382E-1,-6.52534E-1,3.311813E-2,-3.066112E-3,5.596883E-1,-8.823698E-1,-1.8997741E-1,-3.9008245E-1,1.5174656E-1,-1.1172376E-1,7.3589784E-1,-4.6591356E-2,-1.0249694E-2,-2.3226079E-2,2.8694922E-2,-3.175939E-2,1.3464399E-2,1.6477474E-3,3.6242217E-2,-2.349077E-2,3.824794E-2,1.0778449E-3,4.5702685E-2],"categories":[],"categories_nodes":[],"categories_segments":[],"categories_sizes":[],"default_left":[0,0,0,0,0,0,0,0,0,0,0,0,0,0,0,0,0,0,0,0,0,0,0,0,0],"id":33,"left_children":[1,3,5,7,-1,9,11,13,15,17,19,21,23,-1,-1,-1,-1,-1,-1,-1,-1,-1,-1,-1,-1],"loss_changes":[8.342529E0,3.0121508E0,5.34838E0,1.991724E0,0E0,4.034355E0,2.7759886E0,2.5437355E-1,1.9478235E0,3.2800055E0,3.2513943E0,2.1178992E0,2.292345E0,0E0,0E0,0E0,0E0,0E0,0E0,0E0,0E0,0E0,0E0,0E0,0E0],"parents":[2147483647,0,0,1,1,2,2,3,3,5,5,6,6,7,7,8,8,9,9,10,10,11,11,12,12],"right_children":[2,4,6,8,-1,10,12,14,16,18,20,22,24,-1,-1,-1,-1,-1,-1,-1,-1,-1,-1,-1,-1],"split_conditions":[1E2,1.42E2,7E0,3.41E1,3.311813E-2,2.97E1,2.79E1,3.1E1,7.09E-1,4.1E1,1.66E2,1.46E2,2.52E-1,-4.6591356E-2,-1.0249694E-2,-2.3226079E-2,2.8694922E-2,-3.175939E-2,1.3464399E-2,1.6477474E-3,3.6242217E-2,-2.349077E-2,3.824794E-2,1.0778449E-3,4.5702685E-2],"split_indices":[1,4,0,5,0,5,5,3,6,7,1,1,6,0,0,0,0,0,0,0,0,0,0,0,0],"split_type":[0,0,0,0,0,0,0,0,0,0,0,0,0,0,0,0,0,0,0,0,0,0,0,0,0],"sum_hessian":[1.0753706E2,2.042151E1,8.711555E1,1.9311481E1,1.11003E0,6.534665E1,2.17689E1,1.229482E1,7.016662E0,1.8236786E1,4.7109863E1,4.6015506E0,1.7167349E1,1.1108137E1,1.1866822E0,5.4498305E0,1.5668316E0,1.33215065E1,4.915279E0,3.9897434E1,7.21243E0,3.5965817E0,1.0049689E0,3.6506305E0,1.3516719E1],"tree_param":{"num_deleted":"0","num_feature":"8","num_nodes":"25","size_leaf_vector":"1"}},{"base_weights":[6.542637E-3,-4.1619107E-1,1.748873E-1,-6.40601E-1,2.5252253E-1,5.5459905E-2,6.2843233E-1,-7.644478E-1,1.312251E-1,-2.8930558E-2,5.806831E-1,-6.0227793E-1,1.5726049E-1,7.2712E-1,-3.5246946E-3,-4.2652972E-2,-6.24537E-3,-1.8190613E-2,2.3905847E-2,-9.943506E-3,4.613807E-2,-4.87598E-2,7.500769E-3,3.0060841E-3,5.0349575E-2,1.4504075E-2,5.1312186E-2],"categories":[],"categories_nodes":[],"categories_segments":[],"categories_sizes":[],"default_left":[0,0,0,0,0,0,0,0,0,0,0,0,0,0,0,0,0,0,0,0,0,0,0,0,0,0,0],"id":34,"left_children":[1,3,5,7,9,11,13,15,17,-1,19,21,23,25,-1,-1,-1,-1,-1,-1,-1,-1,-1,-1,-1,-1,-1],"loss_changes":[7.733445E0,4.806998E0,4.173382E0,2.3427734E0,2.6529725E0,4.2859554E0,1.1615481E0,1.0473909E0,8.775512E-1,0E0,1.9407096E0,2.558024E0,4.479125E0,1.5578184E0,0E0,0E0,0E0,0E0,0E0,0E0,0E0,0E0,0E0,0E0,0E0,0E0,0E0],"parents":[2147483647,0,0,1,1,2,2,3,3,4,4,5,5,6,6,7,7,8,8,10,10,11,11,12,12,13,13],"right_children":[2,4,6,8,10,12,14,16,18,-1,20,22,24,26,-1,-1,-1,-1,-1,-1,-1,-1,-1,-1,-1,-1,-1],"split_conditions":[1.07E2,6.6E-1,1.59E2,3.88E1,2E0,1.92E-1,1.076E0,8.2E1,2.87E-1,-2.8930558E-2,6.6E1,6E0,4.29E1,7.1E1,-3.5246946E-3,-4.2652972E-2,-6.24537E-3,-1.8190613E-2,2.3905847E-2,-9.943506E-3,4.613807E-2,-4.87598E-2,7.500769E-3,3.0060841E-3,5.0349575E-2,1.4504075E-2,5.1312186E-2],"split_indices":[1,6,1,5,0,6,6,2,6,0,2,0,5,4,0,0,0,0,0,0,0,0,0,0,0,0,0],"split_type":[0,0,0,0,0,0,0,0,0,0,0,0,0,0,0,0,0,0,0,0,0,0,0,0,0,0,0],"sum_hessian":[1.06646484E2,2.9954607E1,7.669187E1,2.2459566E1,7.4950414E0,6.1594975E1,1.5096899E1,1.9362265E1,3.0972998E0,1.9055789E0,5.5894623E0,7.5966244E0,5.3998352E1,1.3193632E1,1.9032667E0,1.6712763E1,2.6495025E0,1.256053E0,1.841247E0,1.8323679E0,3.7570944E0,4.880849E0,2.7157753E0,4.9419598E1,4.5787535E0,6.161323E0,7.032309E0],"tree_param":{"num_deleted":"0","num_feature":"8","num_nodes":"27","size_leaf_vector":"1"}},{"base_weights":[6.5436396E-3,-5.2440804E-1,1.3219942E-1,-6.249461E-1,3.2496076E-2,-6.301514E-3,5.315409E-1,-8.565498E-1,-1.7454977E-1,-3.7256083E-1,1.3905244E-1,-1.093008E-1,6.9983566E-1,-4.5414638E-2,-9.060347E-3,-2.9775968E-2,1.5479225E-2,-3.057005E-2,1.279031E-2,1.4082358E-3,3.4408294E-2,2.6236016E-2,-2.4138544E-2,9.548801E-4,4.356991E-2],"categories":[],"categories_nodes":[],"categories_segments":[],"categories_sizes":[],"default_left":[0,0,0,0,0,0,0,0,0,0,0,0,0,0,0,0,0,0,0,0,0,0,0,0,0],"id":35,"left_children":[1,3,5,7,-1,9,11,13,15,17,19,21,23,-1,-1,-1,-1,-1,-1,-1,-1,-1,-1,-1,-1],"loss_changes":[7.196095E0,2.8434644E0,4.8250313E0,1.8872662E0,0E0,3.550348E0,2.4989E0,2.7706528E-1,1.7917206E0,2.999251E0,2.8895583E0,1.5643227E0,2.0767117E0,0E0,0E0,0E0,0E0,0E0,0E0,0E0,0E0,0E0,0E0,0E0,0E0],"parents":[2147483647,0,0,1,1,2,2,3,3,5,5,6,6,7,7,8,8,9,9,10,10,11,11,12,12],"right_children":[2,4,6,8,-1,10,12,14,16,18,20,22,24,-1,-1,-1,-1,-1,-1,-1,-1,-1,-1,-1,-1],"split_conditions":[1E2,1.42E2,7E0,3.41E1,3.2496076E-2,2.97E1,2.79E1,3.1E1,7.5E1,4.1E1,1.66E2,7.2E1,2.52E-1,-4.5414638E-2,-9.060347E-3,-2.9775968E-2,1.5479225E-2,-3.057005E-2,1.279031E-2,1.4082358E-3,3.4408294E-2,2.6236016E-2,-2.4138544E-2,9.548801E-4,4.356991E-2],"split_indices":[1,4,0,5,0,5,5,3,2,7,1,2,6,0,0,0,0,0,0,0,0,0,0,0,0],"split_type":[0,0,0,0,0,0,0,0,0,0,0,0,0,0,0,0,0,0,0,0,0,0,0,0,0],"sum_hessian":[1.0582064E2,1.9643736E1,8.61769E1,1.8525534E1,1.1182024E0,6.471607E1,2.1460827E1,1.1638824E1,6.8867083E0,1.7942322E1,4.6773754E1,4.5366135E0,1.6924213E1,1.0490161E1,1.1486635E0,3.560593E0,3.3261154E0,1.3020336E1,4.921986E0,3.978989E1,6.983862E0,1.5315659E0,3.0050476E0,3.6304345E0,1.3293778E1],"tree_param":{"num_deleted":"0","num_feature":"8","num_nodes":"25","size_leaf_vector":"1"}},{"base_weights":[6.459461E-3,-3.9273655E-1,1.6245718E-1,-6.1461234E-1,2.504262E-1,7.438849E-2,7.1442765E-1,-7.3818386E-1,1.22105345E-1,-2.786309E-2,5.6307054E-1,-1.16845064E-1,4.009989E-1,9.2073417E-1,-2.8390825E-2,-4.1376706E-2,-5.9052436E-3,2.3362206E-2,-1.7879158E-2,-9.214167E-3,4.4199705E-2,3.505556E-2,-1.2256371E-2,3.286893E-2,-1.2067543E-2,5.133736E-2,8.366508E-3],"categories":[],"categories_nodes":[],"categories_segments":[],"categories_sizes":[],"default_left":[0,0,0,0,0,0,0,0,0,0,0,0,0,0,0,0,0,0,0,0,0,0,0,0,0,0,0],"id":36,"left_children":[1,3,5,7,9,11,13,15,17,-1,19,21,23,25,-1,-1,-1,-1,-1,-1,-1,-1,-1,-1,-1,-1,-1],"loss_changes":[6.665879E0,4.4465666E0,3.6868122E0,2.1525965E0,2.4415283E0,4.260696E0,3.292512E0,9.850197E-1,8.4789604E-1,0E0,1.7391772E0,4.7180185E0,4.2988443E0,5.790129E-1,0E0,0E0,0E0,0E0,0E0,0E0,0E0,0E0,0E0,0E0,0E0,0E0,0E0],"parents":[2147483647,0,0,1,1,2,2,3,3,4,4,5,5,6,6,7,7,8,8,10,10,11,11,12,12,13,13],"right_children":[2,4,6,8,10,12,14,16,18,-1,20,22,24,26,-1,-1,-1,-1,-1,-1,-1,-1,-1,-1,-1,-1,-1],"split_conditions":[1.07E2,6.6E-1,4.2E1,3.88E1,2E0,4E1,4.7E1,8.2E1,3.7E1,-2.786309E-2,6.6E1,5.5E1,5.7E1,2.31E2,-2.8390825E-2,-4.1376706E-2,-5.9052436E-3,2.3362206E-2,-1.7879158E-2,-9.214167E-3,4.4199705E-2,3.505556E-2,-1.2256371E-2,3.286893E-2,-1.2067543E-2,5.133736E-2,8.366508E-3],"split_indices":[1,6,5,5,0,7,7,2,3,0,2,2,7,4,0,0,0,0,0,0,0,0,0,0,0,0,0],"split_type":[0,0,0,0,0,0,0,0,0,0,0,0,0,0,0,0,0,0,0,0,0,0,0,0,0,0,0],"sum_hessian":[1.0501712E2,2.9081186E1,7.5935936E1,2.165509E1,7.426097E0,6.646586E1,9.470077E0,1.8542858E1,3.1122317E0,1.8540121E0,5.572085E0,4.232589E1,2.4139969E1,8.400426E0,1.06965E0,1.5915023E1,2.6278348E0,1.8250442E0,1.2871876E0,1.8018293E0,3.7702556E0,5.1327815E0,3.7193108E1,1.7236862E1,6.903107E0,7.0461383E0,1.3542877E0],"tree_param":{"num_deleted":"0","num_feature":"8","num_nodes":"27","size_leaf_vector":"1"}},{"base_weights":[6.4719175E-3,-1.0903734E-1,5.3296024E-1,-7.1186525E-1,-8.816824E-4,3.4518373E-1,8.818166E-1,2.493327E-3,-8.0539143E-1,-1.2348661E-1,4.2174244E-1,4.9016598E-1,-1.6124867E-1,4.9914505E-2,9.847451E-3,-4.482998E-2,-1.3745698E-2,4.2206567E-2,-9.826929E-3,-3.74856E-2,3.7440155E-2,4.6940465E-3,4.5483824E-2,2.6129594E-2,-4.7675427E-2],"categories":[],"categories_nodes":[],"categories_segments":[],"categories_sizes":[],"default_left":[0,0,0,0,0,0,0,0,0,0,0,0,0,0,0,0,0,0,0,0,0,0,0,0,0],"id":37,"left_children":[1,3,5,7,9,11,13,-1,15,17,19,21,23,-1,-1,-1,-1,-1,-1,-1,-1,-1,-1,-1,-1],"loss_changes":[6.4661765E0,5.68753E0,9.486542E-1,9.8555756E-1,3.9368377E0,1.1127188E0,2.8599644E-1,0E0,3.2818556E-1,4.3284154E0,7.107445E0,1.7753022E0,2.6035428E0,0E0,0E0,0E0,0E0,0E0,0E0,0E0,0E0,0E0,0E0,0E0,0E0],"parents":[2147483647,0,0,1,1,2,2,3,3,4,4,5,5,6,6,8,8,9,9,10,10,11,11,12,12],"right_children":[2,4,6,8,10,12,14,-1,16,18,20,22,24,-1,-1,-1,-1,-1,-1,-1,-1,-1,-1,-1,-1],"split_conditions":[1.55E2,2.68E1,7E0,1.82E1,4.3E1,2.5E2,1E1,2.493327E-3,1.31E2,4.4E1,2.33E-1,3.41E1,3E1,4.9914505E-2,9.847451E-3,-4.482998E-2,-1.3745698E-2,4.2206567E-2,-9.826929E-3,-3.74856E-2,3.7440155E-2,4.6940465E-3,4.5483824E-2,2.6129594E-2,-4.7675427E-2],"split_indices":[1,5,0,5,7,4,0,0,1,2,6,5,7,0,0,0,0,0,0,0,0,0,0,0,0],"split_type":[0,0,0,0,0,0,0,0,0,0,0,0,0,0,0,0,0,0,0,0,0,0,0,0,0],"sum_hessian":[1.04371056E2,8.624268E1,1.8128374E1,1.2270219E1,7.3972466E1,1.3078286E1,5.050087E0,1.3928502E0,1.0877369E1,5.788702E1,1.6085443E1,1.0192486E1,2.885801E0,3.9249437E0,1.1251433E0,8.692619E0,2.1847491E0,3.3225534E0,5.4564465E1,3.2287054E0,1.2856737E1,5.870645E0,4.3218403E0,1.7315707E0,1.1542304E0],"tree_param":{"num_deleted":"0","num_feature":"8","num_nodes":"25","size_leaf_vector":"1"}},{"base_weights":[6.776095E-3,-4.9235433E-1,1.21660054E-1,-5.9380096E-1,3.1325545E-2,-6.3391104E-3,4.9339083E-1,-8.2665783E-1,-1.6219099E-1,-9.496855E-2,5.1492494E-1,6.279654E-2,3.2294402E-1,-4.4069495E-2,-7.6737367E-3,-2.1264916E-2,2.6780644E-2,-1.7982228E-2,5.970975E-3,4.103778E-2,-1.706271E-2,-3.5387964E-3,3.6969624E-2],"categories":[],"categories_nodes":[],"categories_segments":[],"categories_sizes":[],"default_left":[0,0,0,0,0,0,0,0,0,0,0,0,0,0,0,0,0,0,0,0,0,0,0],"id":38,"left_children":[1,3,5,7,-1,9,11,13,15,17,19,-1,21,-1,-1,-1,-1,-1,-1,-1,-1,-1,-1],"loss_changes":[6.0598006E0,2.6166286E0,4.088361E0,1.7397904E0,0E0,3.0451136E0,2.4543314E0,3.0195808E-1,1.6558179E0,3.2361097E0,2.7886386E0,0E0,3.2218077E0,0E0,0E0,0E0,0E0,0E0,0E0,0E0,0E0,0E0,0E0],"parents":[2147483647,0,0,1,1,2,2,3,3,5,5,6,6,7,7,8,8,9,9,10,10,12,12],"right_children":[2,4,6,8,-1,10,12,14,16,18,20,-1,22,-1,-1,-1,-1,-1,-1,-1,-1,-1,-1],"split_conditions":[1E2,1.42E2,7E0,3.41E1,3.1325545E-2,4.2E1,3.4E1,3.1E1,7.09E-1,3.42E-1,8.13E-1,6.279654E-2,1.4E2,-4.4069495E-2,-7.6737367E-3,-2.1264916E-2,2.6780644E-2,-1.7982228E-2,5.970975E-3,4.103778E-2,-1.706271E-2,-3.5387964E-3,3.6969624E-2],"split_indices":[1,4,0,5,0,5,7,3,6,6,6,0,1,0,0,0,0,0,0,0,0,0,0],"split_type":[0,0,0,0,0,0,0,0,0,0,0,0,0,0,0,0,0,0,0,0,0,0,0],"sum_hessian":[1.0363347E2,1.877538E1,8.485809E1,1.7644821E1,1.1305588E0,6.3854E1,2.1004091E1,1.0866806E1,6.7780147E0,5.527373E1,8.580266E0,2.673775E0,1.8330317E1,9.763698E0,1.1031083E0,5.2057157E0,1.5722991E0,2.443258E1,3.0841152E1,6.3525014E0,2.227765E0,9.848946E0,8.481371E0],"tree_param":{"num_deleted":"0","num_feature":"8","num_nodes":"23","size_leaf_vector":"1"}},{"base_weights":[7.3056673E-3,-1.0255403E-1,5.1219064E-1,-6.931802E-1,4.264363E-4,2.1246566E-1,6.9202584E-1,2.1553852E-3,-7.8712946E-1,-1.15594275E-1,3.986127E-1,-3.8010097E-1,6.533646E-1,8.03222E-1,-9.293481E-3,-4.4030678E-2,-1.3254697E-2,4.0288236E-2,-9.30517E-3,-3.6373254E-2,3.5520162E-2,1.2468944E-2,-5.5330634E-2,6.8348795E-3,4.7267906E-2,5.2841194E-2,2.2885641E-2],"categories":[],"categories_nodes":[],"categories_segments":[],"categories_sizes":[],"default_left":[0,0,0,0,0,0,0,0,0,0,0,0,0,0,0,0,0,0,0,0,0,0,0,0,0,0,0],"id":39,"left_children":[1,3,5,7,9,11,13,-1,15,17,19,21,23,25,-1,-1,-1,-1,-1,-1,-1,-1,-1,-1,-1,-1,-1],"loss_changes":[5.823264E0,5.2481265E0,8.6413145E-1,9.200983E-1,3.486416E0,2.4632962E0,1.250598E0,0E0,3.2353306E-1,3.9466095E0,6.4951267E0,2.2191658E0,6.5961146E-1,4.1013432E-1,0E0,0E0,0E0,0E0,0E0,0E0,0E0,0E0,0E0,0E0,0E0,0E0,0E0],"parents":[2147483647,0,0,1,1,2,2,3,3,4,4,5,5,6,6,8,8,9,9,10,10,11,11,12,12,13,13],"right_children":[2,4,6,8,10,12,14,-1,16,18,20,22,24,26,-1,-1,-1,-1,-1,-1,-1,-1,-1,-1,-1,-1,-1],"split_conditions":[1.55E2,2.68E1,3.42E-1,1.82E1,4.3E1,4E0,1.391E0,2.1553852E-3,1.31E2,4.4E1,2.33E-1,2.69E-1,7.5E1,3.4E1,-9.293481E-3,-4.4030678E-2,-1.3254697E-2,4.0288236E-2,-9.30517E-3,-3.6373254E-2,3.5520162E-2,1.2468944E-2,-5.5330634E-2,6.8348795E-3,4.7267906E-2,5.2841194E-2,2.2885641E-2],"split_indices":[1,5,6,5,7,0,6,0,1,2,6,6,2,7,0,0,0,0,0,0,0,0,0,0,0,0,0],"split_type":[0,0,0,0,0,0,0,0,0,0,0,0,0,0,0,0,0,0,0,0,0,0,0,0,0,0,0],"sum_hessian":[1.03040016E2,8.5280426E1,1.7759592E1,1.1810756E1,7.346967E1,7.477895E0,1.0281696E1,1.3977371E0,1.0413019E1,5.744225E1,1.6027422E1,3.249062E0,4.2288327E0,9.2013E0,1.0803969E0,8.248945E0,2.1640735E0,3.3421242E0,5.410013E1,3.1863303E0,1.2841091E1,2.092649E0,1.1564131E0,2.0570843E0,2.1717482E0,4.119134E0,5.0821657E0],"tree_param":{"num_deleted":"0","num_feature":"8","num_nodes":"27","size_leaf_vector":"1"}},{"base_weights":[7.4711726E-3,-4.7355095E-1,1.1630866E-1,-7.561717E-1,-1.8682258E-2,-5.4931017E-3,4.7137517E-1,-8.8200474E-1,1.48900645E-2,3.4965152E-1,-5.218389E-1,-3.3808547E-1,1.23723656E-1,6.011958E-2,3.0509278E-1,-8.906288E-3,-4.750653E-2,-3.5809904E-2,4.282807E-2,9.111452E-3,-4.324646E-2,-2.8430343E-2,1.2302603E-2,1.0919062E-3,3.214284E-2,-3.3944005E-3,3.5298306E-2],"categories":[],"categories_nodes":[],"categories_segments":[],"categories_sizes":[],"default_left":[0,0,0,0,0,0,0,0,0,0,0,0,0,0,0,0,0,0,0,0,0,0,0,0,0,0,0],"id":40,"left_children":[1,3,5,7,9,11,13,15,-1,17,19,21,23,-1,25,-1,-1,-1,-1,-1,-1,-1,-1,-1,-1,-1,-1],"loss_changes":[5.465925E0,2.4627757E0,3.6823413E0,1.8353648E0,1.7408829E0,2.8069975E0,2.2762604E0,3.508463E-1,0E0,3.560042E0,1.1130344E0,2.600208E0,2.475616E0,0E0,2.8969312E0,0E0,0E0,0E0,0E0,0E0,0E0,0E0,0E0,0E0,0E0,0E0,0E0],"parents":[2147483647,0,0,1,1,2,2,3,3,4,4,5,5,6,6,7,7,9,9,10,10,11,11,12,12,14,14],"right_children":[2,4,6,8,10,12,14,16,-1,18,20,22,24,-1,26,-1,-1,-1,-1,-1,-1,-1,-1,-1,-1,-1,-1],"split_conditions":[1E2,3.41E1,7E0,1E1,3.3E1,2.97E1,3.4E1,1.63E-1,1.48900645E-2,2.3E1,7E1,4.1E1,1.66E2,6.011958E-2,1.4E2,-8.906288E-3,-4.750653E-2,-3.5809904E-2,4.282807E-2,9.111452E-3,-4.324646E-2,-2.8430343E-2,1.2302603E-2,1.0919062E-3,3.214284E-2,-3.3944005E-3,3.5298306E-2],"split_indices":[1,5,0,0,3,5,7,6,0,3,2,7,1,0,1,0,0,0,0,0,0,0,0,0,0,0,0],"split_type":[0,0,0,0,0,0,0,0,0,0,0,0,0,0,0,0,0,0,0,0,0,0,0,0,0,0,0],"sum_hessian":[1.0235266E2,1.8267216E1,8.408544E1,1.08583E1,7.408916E0,6.334139E1,2.0744057E1,9.845961E0,1.01234E0,4.4536924E0,2.9552233E0,1.7270987E1,4.60704E1,2.6894734E0,1.8054583E1,1.187837E0,8.658123E0,1.3023814E0,3.1513114E0,1.1218644E0,1.8333589E0,1.2402937E1,4.8680506E0,3.9383102E1,6.6872964E0,9.782963E0,8.27162E0],"tree_param":{"num_deleted":"0","num_feature":"8","num_nodes":"27","size_leaf_vector":"1"}},{"base_weights":[7.4495547E-3,-4.6099344E-1,1.1228247E-1,-5.6170505E-1,2.9390398E-2,-3.0432183E-1,2.0847702E-1,-7.6143515E-1,-9.681965E-2,-5.1421386E-1,3.9191848E-1,7.356303E-2,6.122594E-1,-4.391384E-2,1.0998227E-3,3.1687822E-2,-2.9347554E-2,-1.0264511E-2,-4.804855E-2,-4.2128252E-4,4.134541E-2,-1.0127137E-2,1.1126247E-2,1.3805771E-3,4.0235642E-2],"categories":[],"categories_nodes":[],"categories_segments":[],"categories_sizes":[],"default_left":[0,0,0,0,0,0,0,0,0,0,0,0,0,0,0,0,0,0,0,0,0,0,0,0,0],"id":41,"left_children":[1,3,5,7,-1,9,11,13,15,17,19,21,23,-1,-1,-1,-1,-1,-1,-1,-1,-1,-1,-1,-1],"loss_changes":[5.0942535E0,2.3342047E0,3.458137E0,1.5810695E0,0E0,2.5830622E0,3.7362192E0,1.1470971E0,2.7000337E0,1.5906057E0,7.631743E-1,2.2316806E0,1.9183989E0,0E0,0E0,0E0,0E0,0E0,0E0,0E0,0E0,0E0,0E0,0E0,0E0],"parents":[2147483647,0,0,1,1,2,2,3,3,5,5,6,6,7,7,8,8,9,9,10,10,11,11,12,12],"right_children":[2,4,6,8,-1,10,12,14,16,18,20,22,24,-1,-1,-1,-1,-1,-1,-1,-1,-1,-1,-1,-1],"split_conditions":[1E2,1.42E2,2.79E1,3.1E1,2.9390398E-2,1.46E2,7E0,3.55E1,3.3E1,4.9E1,3.28E-1,3.19E-1,2.59E-1,-4.391384E-2,1.0998227E-3,3.1687822E-2,-2.9347554E-2,-1.0264511E-2,-4.804855E-2,-4.2128252E-4,4.134541E-2,-1.0127137E-2,1.1126247E-2,1.3805771E-3,4.0235642E-2],"split_indices":[1,4,5,3,0,1,0,5,3,4,6,6,6,0,0,0,0,0,0,0,0,0,0,0,0],"split_type":[0,0,0,0,0,0,0,0,0,0,0,0,0,0,0,0,0,0,0,0,0,0,0,0,0],"sum_hessian":[1.0168117E2,1.7972797E1,8.370837E1,1.68219E1,1.1508988E0,1.5296762E1,6.8411606E1,1.1320389E1,5.5015106E0,1.1954378E1,3.342384E0,5.2164352E1,1.6247255E1,9.745824E0,1.5745642E0,2.0912776E0,3.4102328E0,7.9302673E0,4.024111E0,2.2511559E0,1.0912281E0,1.815457E1,3.400978E1,4.3069086E0,1.1940346E1],"tree_param":{"num_deleted":"0","num_feature":"8","num_nodes":"25","size_leaf_vector":"1"}},{"base_weights":[7.1727503E-3,-9.352962E-2,4.7522905E-1,-6.583784E-1,1.1767939E-4,3.0187434E-1,8.169848E-1,-4.6865508E-2,-2.919733E-1,-5.4369453E-2,7.5824285E-1,4.4785818E-1,-1.9348183E-1,6.3758786E-3,4.7253698E-2,2.2274315E-2,-3.0441353E-2,-1.2081559E-2,1.1285602E-2,5.5975445E-2,-1.2313388E-2,3.505518E-3,4.3202017E-2,2.4317041E-2,-4.704937E-2],"categories":[],"categories_nodes":[],"categories_segments":[],"categories_sizes":[],"default_left":[0,0,0,0,0,0,0,0,0,0,0,0,0,0,0,0,0,0,0,0,0,0,0,0,0],"id":42,"left_children":[1,3,5,7,9,11,13,-1,15,17,19,21,23,-1,-1,-1,-1,-1,-1,-1,-1,-1,-1,-1,-1],"loss_changes":[4.853099E0,4.4852977E0,8.332753E-1,9.5876646E-1,3.087012E0,1.075867E0,3.6947536E-1,0E0,1.828515E0,3.7113872E0,2.0941215E0,1.6479008E0,2.3948264E0,0E0,0E0,0E0,0E0,0E0,0E0,0E0,0E0,0E0,0E0,0E0,0E0],"parents":[2147483647,0,0,1,1,2,2,3,3,4,4,5,5,6,6,8,8,9,9,10,10,11,11,12,12],"right_children":[2,4,6,8,10,12,14,-1,16,18,20,22,24,-1,-1,-1,-1,-1,-1,-1,-1,-1,-1,-1,-1],"split_conditions":[1.55E2,2.68E1,7E0,3E0,4.54E1,2.5E2,3.8E1,-4.6865508E-2,5E0,5.09E-1,8.13E-1,3.41E1,3E1,6.3758786E-3,4.7253698E-2,2.2274315E-2,-3.0441353E-2,-1.2081559E-2,1.1285602E-2,5.5975445E-2,-1.2313388E-2,3.505518E-3,4.3202017E-2,2.4317041E-2,-4.704937E-2],"split_indices":[1,5,0,0,5,4,7,0,0,6,6,5,7,0,0,0,0,0,0,0,0,0,0,0,0],"split_type":[0,0,0,0,0,0,0,0,0,0,0,0,0,0,0,0,0,0,0,0,0,0,0,0,0],"sum_hessian":[1.0102003E2,8.379228E1,1.7227745E1,1.105882E1,7.273346E1,1.2679437E1,4.548308E0,5.3942413E0,5.6645784E0,6.8722595E1,4.01087E0,9.867364E0,2.8120728E0,1.0252453E0,3.5230627E0,1.5803748E0,4.0842037E0,4.1268124E1,2.745447E1,2.8657417E0,1.1451281E0,5.7850356E0,4.082328E0,1.6556841E0,1.1563885E0],"tree_param":{"num_deleted":"0","num_feature":"8","num_nodes":"25","size_leaf_vector":"1"}},{"base_weights":[7.4864086E-3,-4.427292E-1,1.0694174E-1,-7.225486E-1,-1.5875565E-2,-5.562839E-3,4.3787715E-1,-8.34134E-1,7.0919017E-3,-4.2221895E-1,4.233975E-1,-8.58871E-2,4.658487E-1,5.727466E-2,2.743311E-1,-3.991975E-3,-4.544298E-2,-3.8698062E-2,3.535787E-3,-3.6581692E-3,4.8850242E-2,-3.289202E-6,-3.384186E-2,3.8378358E-2,-1.7915947E-2,-2.627989E-2,2.2648288E-2],"categories":[],"categories_nodes":[],"categories_segments":[],"categories_sizes":[],"default_left":[0,0,0,0,0,0,0,0,0,0,0,0,0,0,0,0,0,0,0,0,0,0,0,0,0,0,0],"id":43,"left_children":[1,3,5,7,9,11,13,15,-1,17,19,21,23,-1,25,-1,-1,-1,-1,-1,-1,-1,-1,-1,-1,-1,-1],"loss_changes":[4.586611E0,2.2026494E0,3.1239157E0,1.1961365E0,1.6714535E0,2.4466047E0,2.1488223E0,4.9347258E-1,0E0,8.9475507E-1,1.3134159E0,2.7968216E0,2.6145964E0,0E0,2.8962967E0,0E0,0E0,0E0,0E0,0E0,0E0,0E0,0E0,0E0,0E0,0E0,0E0],"parents":[2147483647,0,0,1,1,2,2,3,3,4,4,5,5,6,6,7,7,9,9,10,10,11,11,12,12,14,14],"right_children":[2,4,6,8,10,12,14,16,-1,18,20,22,24,-1,26,-1,-1,-1,-1,-1,-1,-1,-1,-1,-1,-1,-1],"split_conditions":[1E2,3.41E1,7E0,4.3E1,7.5E1,4.2E1,3.4E1,1.63E-1,7.0919017E-3,4.93E-1,9.4E1,3.86E1,8.13E-1,5.727466E-2,3.8E1,-3.991975E-3,-4.544298E-2,-3.8698062E-2,3.535787E-3,-3.6581692E-3,4.8850242E-2,-3.289202E-6,-3.384186E-2,3.8378358E-2,-1.7915947E-2,-2.627989E-2,2.2648288E-2],"split_indices":[1,5,0,7,2,5,7,6,0,6,1,5,6,0,7,0,0,0,0,0,0,0,0,0,0,0,0],"split_type":[0,0,0,0,0,0,0,0,0,0,0,0,0,0,0,0,0,0,0,0,0,0,0,0,0,0,0],"sum_hessian":[1.003764E2,1.7537209E1,8.2839195E1,1.0174616E1,7.362593E0,6.2555916E1,2.0283278E1,9.042323E0,1.1322924E0,3.84482E0,3.5177732E0,5.4147484E1,8.408432E0,2.6806757E0,1.76026E1,1.0014931E0,8.040831E0,1.9110483E0,1.9337716E0,2.3119237E0,1.2058493E0,4.8154335E1,5.9931493E0,6.205386E0,2.203046E0,2.8587532E0,1.4743848E1],"tree_param":{"num_deleted":"0","num_feature":"8","num_nodes":"27","size_leaf_vector":"1"}},{"base_weights":[7.148311E-3,-8.9848034E-2,4.605576E-1,-5.9851897E-1,7.7700047E-3,1.7432144E-1,6.387802E-1,-6.749607E-1,5.461212E-3,-4.469769E-2,7.211723E-1,5.158019E-1,-5.307598E-1,7.5542206E-1,-1.0102609E-2,-1.6979221E-2,-4.8018094E-2,-1.1598737E-2,1.1771727E-2,5.3624716E-2,-1.2057265E-2,-4.241537E-3,3.9626453E-2,-5.427378E-2,1.6264843E-2,5.344348E-2,9.4784545E-3],"categories":[],"categories_nodes":[],"categories_segments":[],"categories_sizes":[],"default_left":[0,0,0,0,0,0,0,0,0,0,0,0,0,0,0,0,0,0,0,0,0,0,0,0,0,0,0],"id":44,"left_children":[1,3,5,7,9,11,13,15,-1,17,19,21,23,25,-1,-1,-1,-1,-1,-1,-1,-1,-1,-1,-1,-1,-1],"loss_changes":[4.4829173E0,4.1772656E0,8.048942E-1,8.063917E-1,2.7080982E0,2.2642846E0,1.2014155E0,8.571067E-1,0E0,3.5975459E0,1.9341209E0,1.0772792E0,1.8681009E0,1.5004086E0,0E0,0E0,0E0,0E0,0E0,0E0,0E0,0E0,0E0,0E0,0E0,0E0,0E0],"parents":[2147483647,0,0,1,1,2,2,3,3,4,4,5,5,6,6,7,7,9,9,10,10,11,11,12,12,13,13],"right_children":[2,4,6,8,10,12,14,16,-1,18,20,22,24,26,-1,-1,-1,-1,-1,-1,-1,-1,-1,-1,-1,-1,-1],"split_conditions":[1.55E2,2.74E1,3.42E-1,9E1,4.54E1,2.69E-1,4.78E2,1.4E1,5.461212E-3,5.09E-1,8.13E-1,1.62E2,4E0,3.7E1,-1.0102609E-2,-1.6979221E-2,-4.8018094E-2,-1.1598737E-2,1.1771727E-2,5.3624716E-2,-1.2057265E-2,-4.241537E-3,3.9626453E-2,-5.427378E-2,1.6264843E-2,5.344348E-2,9.4784545E-3],"split_indices":[1,5,6,2,5,6,4,3,0,6,6,1,0,7,0,0,0,0,0,0,0,0,0,0,0,0,0],"split_type":[0,0,0,0,0,0,0,0,0,0,0,0,0,0,0,0,0,0,0,0,0,0,0,0,0,0,0],"sum_hessian":[9.999211E1,8.3031334E1,1.696078E1,1.2542624E1,7.048871E1,7.267249E0,9.693529E0,1.1361785E1,1.1808398E0,6.653285E1,3.9558618E0,5.076892E0,2.1903574E0,8.601844E0,1.0916857E0,6.230336E0,5.1314487E0,3.9978138E1,2.655471E1,2.814028E0,1.1418338E0,1.8200178E0,3.256874E0,1.1664895E0,1.023868E0,4.9634476E0,3.6383963E0],"tree_param":{"num_deleted":"0","num_feature":"8","num_nodes":"27","size_leaf_vector":"1"}},{"base_weights":[7.163459E-3,-3.249831E-1,1.30819E-1,-5.4526037E-1,2.6687163E-1,6.697138E-2,6.844655E-1,-6.6866744E-1,1.1455101E-1,-4.1847117E-2,5.3952646E-2,-1.9257445E-2,5.7360536E-1,8.6154395E-1,-1.15372725E-2,-3.8293105E-2,-2.908781E-3,2.2897191E-2,-1.8020518E-2,3.0701203E-2,-2.4334379E-2,1.0867766E-2,-1.2917903E-2,7.738472E-4,4.5280606E-2,5.0844545E-3,4.909834E-2],"categories":[],"categories_nodes":[],"categories_segments":[],"categories_sizes":[],"default_left":[0,0,0,0,0,0,0,0,0,0,0,0,0,0,0,0,0,0,0,0,0,0,0,0,0,0,0],"id":45,"left_children":[1,3,5,7,9,11,13,15,17,19,-1,21,23,25,-1,-1,-1,-1,-1,-1,-1,-1,-1,-1,-1,-1,-1],"loss_changes":[4.164868E0,3.7328973E0,2.564793E0,1.7361841E0,2.084834E0,2.9522483E0,1.4187832E0,9.8294926E-1,8.280693E-1,2.2994118E0,0E0,3.365788E0,1.806505E0,4.966278E-1,0E0,0E0,0E0,0E0,0E0,0E0,0E0,0E0,0E0,0E0,0E0,0E0,0E0],"parents":[2147483647,0,0,1,1,2,2,3,3,4,4,5,5,6,6,7,7,8,8,9,9,11,11,12,12,13,13],"right_children":[2,4,6,8,10,12,14,16,18,20,-1,22,24,26,-1,-1,-1,-1,-1,-1,-1,-1,-1,-1,-1,-1,-1],"split_conditions":[1.07E2,6.6E-1,4.29E1,3.88E1,1.55E2,1.67E2,2.31E2,8.2E1,3.7E1,1.5E1,5.3952646E-2,7.4E1,7.1E1,2.3E-1,-1.15372725E-2,-3.8293105E-2,-2.908781E-3,2.2897191E-2,-1.8020518E-2,3.0701203E-2,-2.4334379E-2,1.0867766E-2,-1.2917903E-2,7.738472E-4,4.5280606E-2,5.0844545E-3,4.909834E-2],"split_indices":[1,6,5,5,4,1,4,2,3,4,0,2,4,6,0,0,0,0,0,0,0,0,0,0,0,0,0],"split_type":[0,0,0,0,0,0,0,0,0,0,0,0,0,0,0,0,0,0,0,0,0,0,0,0,0,0,0],"sum_hessian":[9.9369545E1,2.651648E1,7.2853065E1,1.9381699E1,7.134781E0,6.632527E1,6.527797E0,1.6316532E1,3.0651653E0,5.8569627E0,1.2778182E0,5.7500675E1,8.824594E0,5.5186644E0,1.0091329E0,1.38560505E1,2.460482E0,1.799774E0,1.2653912E0,2.213323E0,3.6436396E0,2.8946405E1,2.8554272E1,3.6818101E0,5.1427836E0,1.0072789E0,4.5113854E0],"tree_param":{"num_deleted":"0","num_feature":"8","num_nodes":"27","size_leaf_vector":"1"}},{"base_weights":[7.912834E-3,-3.954661E-1,1.0475668E-1,-5.696445E-1,3.609255E-1,-4.0767968E-1,1.7810574E-1,4.1608657E-3,-6.3334775E-1,-2.5515262E-2,3.9493423E-2,-8.386819E-1,1.6792579E-1,6.035923E-2,5.4176444E-1,-3.9209988E-2,-1.6847441E-2,-2.195439E-2,1.9334935E-2,-9.111413E-3,-4.7214624E-2,3.9735556E-2,-2.0402413E-2,2.09593E-2,-3.998135E-3,8.937224E-3,4.2367324E-2],"categories":[],"categories_nodes":[],"categories_segments":[],"categories_sizes":[],"default_left":[0,0,0,0,0,0,0,0,0,0,0,0,0,0,0,0,0,0,0,0,0,0,0,0,0,0,0],"id":46,"left_children":[1,3,5,7,9,11,13,-1,15,17,-1,19,21,23,25,-1,-1,-1,-1,-1,-1,-1,-1,-1,-1,-1,-1],"loss_changes":[3.939774E0,2.7785237E0,3.127005E0,7.29022E-1,7.275415E-1,2.7406247E0,3.0410266E0,0E0,4.0341902E-1,7.176654E-1,0E0,2.5493002E-1,2.2449162E0,2.8205242E0,1.7823181E0,0E0,0E0,0E0,0E0,0E0,0E0,0E0,0E0,0E0,0E0,0E0,0E0],"parents":[2147483647,0,0,1,1,2,2,3,3,4,4,5,5,6,6,8,8,9,9,11,11,12,12,13,13,14,14],"right_children":[2,4,6,8,10,12,14,-1,16,18,-1,20,22,24,26,-1,-1,-1,-1,-1,-1,-1,-1,-1,-1,-1,-1],"split_conditions":[2.79E1,1.46E2,9.5E1,1.82E1,3.28E-1,3.1E1,7E0,4.1608657E-3,3.6E1,3E0,3.9493423E-2,2.95E1,3.3E1,1.3E1,4.21E-1,-3.9209988E-2,-1.6847441E-2,-2.195439E-2,1.9334935E-2,-9.111413E-3,-4.7214624E-2,3.9735556E-2,-2.0402413E-2,2.09593E-2,-3.998135E-3,8.937224E-3,4.2367324E-2],"split_indices":[5,1,1,5,6,3,0,0,7,0,0,5,3,3,6,0,0,0,0,0,0,0,0,0,0,0,0],"split_type":[0,0,0,0,0,0,0,0,0,0,0,0,0,0,0,0,0,0,0,0,0,0,0,0,0,0,0],"sum_hessian":[9.879187E1,1.852927E1,8.02626E1,1.5261755E1,3.2675152E0,9.479333E0,7.078327E1,1.32955E0,1.3932205E1,2.2136881E0,1.0538269E0,5.1591897E0,4.3201437E0,5.435124E1,1.643203E1,8.142387E0,5.789818E0,1.0724798E0,1.1412083E0,1.0926952E0,4.0664945E0,1.8869557E0,2.433188E0,1.4720675E1,3.9630566E1,8.234584E0,8.197445E0],"tree_param":{"num_deleted":"0","num_feature":"8","num_nodes":"27","size_leaf_vector":"1"}},{"base_weights":[7.656068E-3,-8.108677E-2,4.270562E-1,-6.125557E-1,1.9360725E-3,2.5934678E-1,7.726065E-1,-4.550309E-2,-2.463358E-1,-1.0249291E-1,3.560206E-1,4.5854402E-1,-1.05982974E-1,8.034844E-3,4.4928987E-2,2.437458E-2,-2.8752027E-2,-1.589953E-4,-4.1221183E-2,-3.50211E-2,3.2505725E-2,3.6129583E-2,-1.6717166E-2,3.7998643E-2,-2.6189229E-2],"categories":[],"categories_nodes":[],"categories_segments":[],"categories_sizes":[],"default_left":[0,0,0,0,0,0,0,0,0,0,0,0,0,0,0,0,0,0,0,0,0,0,0,0,0],"id":47,"left_children":[1,3,5,7,9,11,13,-1,15,17,19,21,23,-1,-1,-1,-1,-1,-1,-1,-1,-1,-1,-1,-1],"loss_changes":[3.7275016E0,3.651707E0,8.13071E-1,9.940262E-1,2.7192237E0,1.0149304E0,2.571211E-1,0E0,1.8199631E0,4.0700884E0,5.658741E0,2.0799859E0,2.3871434E0,0E0,0E0,0E0,0E0,0E0,0E0,0E0,0E0,0E0,0E0,0E0,0E0],"parents":[2147483647,0,0,1,1,2,2,3,3,4,4,5,5,6,6,8,8,9,9,10,10,11,11,12,12],"right_children":[2,4,6,8,10,12,14,-1,16,18,20,22,24,-1,-1,-1,-1,-1,-1,-1,-1,-1,-1,-1,-1],"split_conditions":[1.55E2,2.68E1,7E0,3E0,4.3E1,3.7E1,3.9E1,-4.550309E-2,5E0,1.96E2,2.33E-1,3.26E2,1.8E-1,8.034844E-3,4.4928987E-2,2.437458E-2,-2.8752027E-2,-1.589953E-4,-4.1221183E-2,-3.50211E-2,3.2505725E-2,3.6129583E-2,-1.6717166E-2,3.7998643E-2,-2.6189229E-2],"split_indices":[1,5,0,0,7,7,7,0,0,4,6,4,6,0,0,0,0,0,0,0,0,0,0,0,0],"split_type":[0,0,0,0,0,0,0,0,0,0,0,0,0,0,0,0,0,0,0,0,0,0,0,0,0],"sum_hessian":[9.822074E1,8.173311E1,1.6487633E1,1.0181067E1,7.155205E1,1.2278781E1,4.2088513E0,4.798166E0,5.382902E0,5.5804382E1,1.5747662E1,7.7810097E0,4.4977713E0,1.1070491E0,3.101802E0,1.5158116E0,3.8670907E0,4.99389E1,5.865482E0,3.1283586E0,1.2619303E1,5.9036365E0,1.8773732E0,1.1972705E0,3.3005006E0],"tree_param":{"num_deleted":"0","num_feature":"8","num_nodes":"25","size_leaf_vector":"1"}},{"base_weights":[7.1949027E-3,-1.7834733E-1,2.024341E-1,-4.5502087E-1,3.0414222E-2,1.03313245E-1,7.59774E-1,-7.994765E-1,-1.7188087E-1,-1.001932E-1,5.8859414E-1,1.9140257E-1,-9.140171E-1,9.430591E-1,-8.516417E-3,-4.7832377E-2,-1.2498273E-2,2.40398E-2,-1.885921E-2,7.3369243E-3,-4.0325787E-2,6.3226834E-2,6.956587E-3,-2.2744201E-2,1.648946E-2,-6.719913E-2,8.501677E-4,5.1444E-2,1.4423941E-2],"categories":[],"categories_nodes":[],"categories_segments":[],"categories_sizes":[],"default_left":[0,0,0,0,0,0,0,0,0,0,0,0,0,0,0,0,0,0,0,0,0,0,0,0,0,0,0,0,0],"id":48,"left_children":[1,3,5,7,9,11,13,15,17,19,21,23,25,27,-1,-1,-1,-1,-1,-1,-1,-1,-1,-1,-1,-1,-1,-1,-1],"loss_changes":[3.6118584E0,2.9678037E0,2.6044936E0,2.013764E0,2.252341E0,3.9737995E0,1.3839092E0,5.966506E-1,1.9741877E0,4.519831E0,1.6014822E0,3.7131314E0,1.4444127E0,4.8534393E-2,0E0,0E0,0E0,0E0,0E0,0E0,0E0,0E0,0E0,0E0,0E0,0E0,0E0,0E0,0E0],"parents":[2147483647,0,0,1,1,2,2,3,3,4,4,5,5,6,6,7,7,8,8,9,9,10,10,11,11,12,12,13,13],"right_children":[2,4,6,8,10,12,14,16,18,20,22,24,26,28,-1,-1,-1,-1,-1,-1,-1,-1,-1,-1,-1,-1,-1,-1,-1],"split_conditions":[1.25E2,2.9E1,4.2E1,3.11E1,1.4E2,4E1,2.58E2,3E0,3.37E1,1.5E1,1.76E2,2.5E1,1.5E1,4.3E1,-8.516417E-3,-4.7832377E-2,-1.2498273E-2,2.40398E-2,-1.885921E-2,7.3369243E-3,-4.0325787E-2,6.3226834E-2,6.956587E-3,-2.2744201E-2,1.648946E-2,-6.719913E-2,8.501677E-4,5.1444E-2,1.4423941E-2],"split_indices":[1,7,5,5,4,5,4,0,5,4,4,7,4,7,0,0,0,0,0,0,0,0,0,0,0,0,0,0,0],"split_type":[0,0,0,0,0,0,0,0,0,0,0,0,0,0,0,0,0,0,0,0,0,0,0,0,0,0,0,0,0],"sum_hessian":[9.770926E1,5.014312E1,4.756614E1,2.1056774E1,2.9086346E1,4.139038E1,6.1757584E0,8.67705E0,1.2379724E1,2.423593E1,4.850417E0,3.8839203E1,2.5511787E0,5.147472E0,1.0282865E0,6.171089E0,2.5059602E0,2.6412098E0,9.738514E0,1.854486E1,5.6910686E0,1.2129022E0,3.6375148E0,6.4464145E0,3.2392788E1,1.4417763E0,1.1094025E0,4.045285E0,1.1021866E0],"tree_param":{"num_deleted":"0","num_feature":"8","num_nodes":"29","size_leaf_vector":"1"}},{"base_weights":[6.4597814E-3,-5.7931274E-2,5.327822E-1,-1.0919399E-1,7.509687E-1,7.011487E-1,-1.33399805E-2,-2.554269E-1,1.2155508E-1,5.3136356E-2,-1.1728893E-2,1.6113298E-1,5.0454177E-2,-4.7123717E-4,-2.91437E-2,-1.3678367E-2,1.8213738E-2,-2.9821152E-2,4.18398E-2],"categories":[],"categories_nodes":[],"categories_segments":[],"categories_sizes":[],"default_left":[0,0,0,0,0,0,0,0,0,0,0,0,0,0,0,0,0,0,0],"id":49,"left_children":[1,3,5,7,9,11,-1,13,15,-1,-1,17,-1,-1,-1,-1,-1,-1,-1],"loss_changes":[3.3582718E0,3.7468383E0,1.6410427E0,2.8650224E0,1.9066546E0,1.3668313E0,0E0,4.1615267E0,3.289072E0,0E0,0E0,2.817812E0,0E0,0E0,0E0,0E0,0E0,0E0,0E0],"parents":[2147483647,0,0,1,1,2,2,3,3,4,4,5,5,7,7,8,8,11,11],"right_children":[2,4,6,8,10,12,-1,14,16,-1,-1,18,-1,-1,-1,-1,-1,-1,-1],"split_conditions":[1.67E2,4.54E1,1.076E0,5.09E-1,8.13E-1,7.1E1,-1.33399805E-2,3.7E1,3.13E1,5.3136356E-2,-1.1728893E-2,3.8E1,5.0454177E-2,-4.7123717E-4,-2.91437E-2,-1.3678367E-2,1.8213738E-2,-2.9821152E-2,4.18398E-2],"split_indices":[1,5,6,6,6,4,0,4,5,0,0,7,0,0,0,0,0,0,0],"split_type":[0,0,0,0,0,0,0,0,0,0,0,0,0,0,0,0,0,0,0],"sum_hessian":[9.7181244E1,8.7380875E1,9.800373E0,8.298673E1,4.39414E0,8.197372E0,1.6030003E0,5.0730362E1,3.225637E1,3.2786808E0,1.1154591E0,3.5300696E0,4.6673026E0,2.9555155E1,2.1175209E1,1.2226235E1,2.0030134E1,1.7194703E0,1.8105993E0],"tree_param":{"num_deleted":"0","num_feature":"8","num_nodes":"19","size_leaf_vector":"1"}},{"base_weights":[6.8651703E-3,-3.9060864E-1,9.126312E-2,-4.9356052E-1,2.8245045E-2,-1.0327341E-2,3.9358655E-1,-5.9241307E-1,1.2704313E-2,-3.9833963E-2,2.9235972E-2,5.538995E-2,2.2586648E-1,-3.974554E-2,2.2829187E-3,1.16799325E-2,-6.0440344E-3,-2.7415836E-2,2.0142598E-2],"categories":[],"categories_nodes":[],"categories_segments":[],"categories_sizes":[],"default_left":[0,0,0,0,0,0,0,0,0,0,0,0,0,0,0,0,0,0,0],"id":50,"left_children":[1,3,5,7,-1,9,11,13,-1,-1,15,-1,17,-1,-1,-1,-1,-1,-1],"loss_changes":[3.312095E0,1.9802439E0,2.5033295E0,1.3439233E0,0E0,1.9484804E0,2.2045307E0,1.9178047E0,0E0,0E0,1.8653188E0,0E0,2.6668804E0,0E0,0E0,0E0,0E0,0E0,0E0],"parents":[2147483647,0,0,1,1,2,2,3,3,5,5,6,6,7,7,10,10,12,12],"right_children":[2,4,6,8,-1,10,12,14,-1,-1,16,-1,18,-1,-1,-1,-1,-1,-1],"split_conditions":[1E2,1.42E2,7E0,4.4E1,2.8245045E-2,2.29E1,3.4E1,3.74E1,1.2704313E-2,-3.9833963E-2,2.1E1,5.538995E-2,3.8E1,-3.974554E-2,2.2829187E-3,1.16799325E-2,-6.0440344E-3,-2.7415836E-2,2.0142598E-2],"split_indices":[1,4,0,7,0,5,7,5,0,0,3,0,7,0,0,0,0,0,0],"split_type":[0,0,0,0,0,0,0,0,0,0,0,0,0,0,0,0,0,0,0],"sum_hessian":[9.667033E1,1.6295969E1,8.037436E1,1.5147367E1,1.148603E0,6.0881905E1,1.9492455E1,1.356187E1,1.5854963E0,1.9996895E0,5.8882217E1,2.6410148E0,1.6851439E1,1.0108153E1,3.4537165E0,2.4700226E1,3.418199E1,2.7451797E0,1.4106259E1],"tree_param":{"num_deleted":"0","num_feature":"8","num_nodes":"19","size_leaf_vector":"1"}},{"base_weights":[6.6510323E-3,-3.6751044E-1,9.3438454E-2,-5.341266E-1,3.329183E-1,-3.7587088E-1,1.5927902E-1,5.547411E-3,-6.0076106E-1,-4.459038E-2,3.7849654E-2,-8.1024855E-1,1.7781864E-1,5.403304E-2,4.890997E-1,-4.2829487E-2,-1.927244E-2,1.7610598E-2,-2.1065354E-2,-7.2885896E-3,-4.615347E-2,3.8593452E-2,-1.9239696E-2,1.8845152E-2,-3.6700107E-3,5.752195E-2,1.5314746E-2],"categories":[],"categories_nodes":[],"categories_segments":[],"categories_sizes":[],"default_left":[0,0,0,0,0,0,0,0,0,0,0,0,0,0,0,0,0,0,0,0,0,0,0,0,0,0,0],"id":51,"left_children":[1,3,5,7,9,11,13,-1,15,17,-1,19,21,23,25,-1,-1,-1,-1,-1,-1,-1,-1,-1,-1,-1,-1],"loss_changes":[3.1949823E0,2.340151E0,2.5257905E0,7.2654533E-1,7.0239073E-1,2.5771098E0,2.427323E0,0E0,4.4487572E-1,6.198521E-1,0E0,3.0390906E-1,2.0574553E0,2.2787719E0,1.6999369E0,0E0,0E0,0E0,0E0,0E0,0E0,0E0,0E0,0E0,0E0,0E0,0E0],"parents":[2147483647,0,0,1,1,2,2,3,3,4,4,5,5,6,6,8,8,9,9,11,11,12,12,13,13,14,14],"right_children":[2,4,6,8,10,12,14,-1,16,18,-1,20,22,24,26,-1,-1,-1,-1,-1,-1,-1,-1,-1,-1,-1,-1],"split_conditions":[2.79E1,1.46E2,9.5E1,1.82E1,3.28E-1,3.1E1,7E0,5.547411E-3,2.54E-1,7.2E1,3.7849654E-2,2.95E1,3.3E1,1.3E1,3.4E1,-4.2829487E-2,-1.927244E-2,1.7610598E-2,-2.1065354E-2,-7.2885896E-3,-4.615347E-2,3.8593452E-2,-1.9239696E-2,1.8845152E-2,-3.6700107E-3,5.752195E-2,1.5314746E-2],"split_indices":[5,1,1,5,6,3,0,0,6,2,0,5,3,3,7,0,0,0,0,0,0,0,0,0,0,0,0],"split_type":[0,0,0,0,0,0,0,0,0,0,0,0,0,0,0,0,0,0,0,0,0,0,0,0,0,0,0],"sum_hessian":[9.633288E1,1.7528536E1,7.8804344E1,1.4351959E1,3.176577E0,9.116123E0,6.968822E1,1.2814529E0,1.3070506E1,2.1539748E0,1.0226022E0,4.848803E0,4.2673206E0,5.371239E1,1.597583E1,4.612129E0,8.458377E0,1.0807014E0,1.0732734E0,1.0364612E0,3.812342E0,1.8947539E0,2.3725665E0,1.46462965E1,3.9066093E1,2.3133779E0,1.3662453E1],"tree_param":{"num_deleted":"0","num_feature":"8","num_nodes":"27","size_leaf_vector":"1"}},{"base_weights":[6.6020633E-3,-5.5093262E-2,5.144541E-1,-1.047401E-1,7.2925264E-1,6.81258E-1,-1.2746155E-2,-2.4478777E-1,1.1614649E-1,5.186459E-2,-1.1632885E-2,1.4616103E-1,4.9642682E-2,-6.299105E-4,-2.7874788E-2,-1.31201595E-2,1.7330028E-2,-2.904892E-2,4.081596E-2],"categories":[],"categories_nodes":[],"categories_segments":[],"categories_sizes":[],"default_left":[0,0,0,0,0,0,0,0,0,0,0,0,0,0,0,0,0,0,0],"id":52,"left_children":[1,3,5,7,9,11,-1,13,15,-1,-1,17,-1,-1,-1,-1,-1,-1,-1],"loss_changes":[3.0648463E0,3.4766E0,1.5333447E0,2.595858E0,1.8187482E0,1.3520403E0,0E0,3.704212E0,2.9594777E0,0E0,0E0,2.6559725E0,0E0,0E0,0E0,0E0,0E0,0E0,0E0],"parents":[2147483647,0,0,1,1,2,2,3,3,4,4,5,5,7,7,8,8,11,11],"right_children":[2,4,6,8,10,12,-1,14,16,-1,-1,18,-1,-1,-1,-1,-1,-1,-1],"split_conditions":[1.67E2,4.54E1,1.076E0,5.09E-1,8.13E-1,7.1E1,-1.2746155E-2,3.7E1,3.13E1,5.186459E-2,-1.1632885E-2,3.8E1,4.9642682E-2,-6.299105E-4,-2.7874788E-2,-1.31201595E-2,1.7330028E-2,-2.904892E-2,4.081596E-2],"split_indices":[1,5,6,6,6,4,0,4,5,0,0,7,0,0,0,0,0,0,0],"split_type":[0,0,0,0,0,0,0,0,0,0,0,0,0,0,0,0,0,0,0],"sum_hessian":[9.59135E1,8.631876E1,9.594734E0,8.199517E1,4.3235965E0,7.979321E0,1.6154138E0,5.0113647E1,3.1881521E1,3.2155063E0,1.1080902E0,3.4771512E0,4.5021696E0,2.9356426E1,2.0757221E1,1.2011875E1,1.9869644E1,1.7315E0,1.7456511E0],"tree_param":{"num_deleted":"0","num_feature":"8","num_nodes":"19","size_leaf_vector":"1"}},{"base_weights":[7.0019425E-3,-1.3257582E-1,2.1800229E-1,-3.7625402E-1,7.7801995E-2,-4.1285608E-2,2.717116E-1,-6.6759706E-1,1.1046327E-2,1.5614334E-1,-3.5546605E-2,5.2444316E-2,1.8111755E-1,-4.2916294E-2,1.6274374E-2,-2.8809384E-2,1.6506534E-2,-3.3027407E-2,1.2482768E-2,1.1846192E-2,-3.538473E-2],"categories":[],"categories_nodes":[],"categories_segments":[],"categories_sizes":[],"default_left":[0,0,0,0,0,0,0,0,0,0,0,0,0,0,0,0,0,0,0,0,0],"id":53,"left_children":[1,3,5,7,9,-1,11,13,15,17,-1,-1,19,